,0,1,2,3,4,5,6,7,8,9,10,11,12,13,14,15,16,17,18,19,20,21,22,23,24,25,26,27,28,29,30,31,32,33,34,35,36,37,38,39,40,41,42,43,44,45,46,47,48,49,50,51,52,53,54,55,56,57,58,59,60,61,62,63
0,-0.025855016,0.0020003617,-0.072190456,0.045007877,-0.013536997,0.023698427,0.04819774,0.0042013526,-0.062084734,-0.030048031,-0.069174156,-0.07950074,0.035804935,-0.021263257,0.06565326,-0.0679176,0.060894676,0.05484598,0.035818614,-0.04193163,0.075664096,-0.019100308,0.011688806,-0.034365863,-0.018018976,-0.00044002384,-0.07735209,-0.06923825,0.049799033,-0.04200944,-0.068644226,0.06810161,0.07715995,-0.008980326,0.04047475,-0.026669744,-0.06928438,0.02396375,-0.0044911653,0.032967485,0.052805565,0.058257334,-0.027078759,-0.047441054,-0.07054133,0.06642192,-0.06390557,0.05847714,0.0194702,0.08356523,0.047120474,0.016773574,-0.057870038,0.0804959,0.054986812,0.03867898,0.040116347,0.079228215,0.057288967,-0.07020585,-0.030621376,0.07344014,-0.030668605,0.06734576
1,-0.015889496,-0.029673185,-0.08356203,-0.057793472,0.010776676,-0.06907031,-0.07717557,-0.029142618,-0.023744132,-0.063291565,-0.078469686,-0.0019088537,0.075302236,0.03869146,0.07538939,-0.06425035,-0.059456572,0.06767989,0.06964765,-0.023466773,-0.040501483,-0.02256088,-0.027696889,0.0408535,-0.026407085,0.008921124,0.048092984,0.041324295,-0.0071482062,0.058039702,-0.08078752,0.010184236,0.025429197,-0.040939618,-0.040576085,-0.051785663,-0.06651174,-0.03185665,0.05229,-0.01608339,-0.06654777,0.055757053,-0.019574426,-0.027498465,-0.017921291,0.021453738,-0.07100291,-0.05913706,-0.07464628,-0.027285486,-0.04290296,0.0027173385,-0.083620735,0.029469512,0.011366084,-0.07470406,-0.07532245,0.04079976,0.06214025,0.002831392,0.031933762,0.0053986683,0.027058683,-0.012737647
2,-0.03197078,-0.032210097,-0.059091277,-0.06928592,-0.049872477,-0.021233134,-0.0069071054,0.03502117,-0.075164415,-0.019481048,0.06719547,0.041362755,0.005986668,0.007505402,0.03435473,-0.07255255,0.016126469,0.032709762,-0.05024343,-0.0056284964,0.0577131,0.020183548,0.016890034,-0.045580715,-0.061224062,0.018022127,0.053447254,-0.08249935,0.007911004,-0.062052846,-0.06278475,0.07472698,0.058660023,-0.06590172,-0.03389181,0.030046709,-0.060819175,-0.043800753,-0.05985897,-0.068063945,-0.07831049,0.00037119538,-0.05610877,-0.031920545,-0.04485808,-0.041719086,0.06172701,0.034340434,0.06868286,-0.066243246,0.03993313,0.021482877,-0.06543879,0.02149266,0.027199835,-0.08150756,-0.028035853,0.012995414,0.026689574,-0.030736893,0.05818107,-0.08039466,-0.003634587,-0.07985002
3,0.028242737,-0.02804881,-0.034483645,-0.07567445,-0.05878111,0.05897949,0.005130194,-0.012669802,-0.08176517,-0.074321054,-0.07004247,-0.030802451,0.06973945,-0.08352074,0.068374164,-0.025988441,-0.07435571,-0.051401492,0.03580235,-0.06715157,0.02972892,0.0037068874,0.081543036,-0.0045630857,0.0677573,0.0588642,0.02982907,-0.045669135,-0.07410193,0.043512948,-0.05437283,0.033689454,0.061802946,-0.052739847,0.008419514,-0.011740245,-0.014302805,0.035648383,-0.08333832,0.039806888,-0.042941265,-0.005649768,-0.04607637,-0.04436748,-0.019286275,0.07972839,0.018451557,0.008711331,-0.06706249,0.017165527,-0.061661415,-0.06307638,0.021544762,-0.07269515,0.055625774,-0.046254355,0.04642544,0.06604513,0.06743807,-0.050953932,-0.07112488,0.024906069,-0.06203203,0.03547463
4,-0.070019506,-0.06736283,0.0007211864,-0.009165958,-0.003220901,-0.03904717,0.055771656,0.020917736,-0.057366766,-0.046356272,-0.022937812,-0.019451305,-0.058729548,0.012572899,-0.077404454,0.056599207,-0.031152025,-0.06993247,-0.07183743,-0.039689764,0.06872449,0.07930132,0.06273385,0.018821992,0.07743337,-0.0052349195,0.022629611,0.06751653,0.049843602,0.040076822,0.07271322,0.0079049915,0.026701972,-0.07356427,0.029203981,0.048834123,0.011661008,0.024917714,0.040944614,-0.06355712,-0.055041775,-0.024084583,-0.048777707,0.002415277,-0.040948663,0.07693993,-0.020134374,0.009166293,-0.039041094,0.07643501,-0.074091464,-0.04547222,-0.061129283,0.052807234,-0.045419857,-0.022319,0.064115115,0.019305706,0.027943723,-0.027157474,0.05943475,0.082890786,0.058257155,0.034502216
5,0.049327873,-0.047590964,0.056644075,0.033279374,-0.026003264,0.06922645,-0.07687643,-0.024131712,0.07332497,-0.004510075,0.011615343,-0.06211768,0.041259892,0.05646997,-0.022314027,-0.071060285,-0.03664306,0.02246406,-0.056741178,0.012864299,-0.030961286,0.009694681,0.053194918,0.018928677,-0.030106008,0.065591015,0.011302128,0.010028273,-0.077076115,0.053460233,-0.051929757,-0.043608285,-0.04114841,0.029584646,-0.01330512,0.0046590418,0.022108585,0.016074866,-0.007141061,0.047012024,0.03404569,-0.015665084,-0.013672404,0.07693874,0.04348766,0.027362816,0.008050531,0.021514885,-0.06043661,0.02089256,0.017812595,-0.039213445,-0.060104802,0.031132355,-0.071031466,0.05549606,0.0015286729,0.08276381,0.07358085,-0.028505456,-0.055088744,-0.041623868,0.056972273,-0.08107147
6,0.053150006,0.05726055,0.07264016,0.009169586,0.036123566,0.028314196,0.059243955,-0.02905602,-0.071015045,0.044672556,-0.050129518,0.047598846,-0.05416484,-0.0032519028,0.047929652,0.0619333,-0.05560307,-0.051186886,-0.030915879,0.06607442,0.0136857405,-0.059164755,-0.057564706,0.08122683,-0.059408944,-0.008644149,0.0144636035,-0.06903989,-0.04587115,0.03556726,0.012669586,0.02710417,-0.0456771,0.07878124,-0.03419281,-0.008591667,0.065175615,-0.05299677,0.01557456,0.019644894,0.03143181,0.06533932,0.050539963,0.06986462,0.053996958,-0.07030994,-0.081200905,0.015234709,-0.013298601,0.037218153,-0.013745561,0.052868716,-0.021172151,0.026254646,-0.01275295,-0.07562171,-0.07258277,-0.020285308,0.0026273727,0.06610086,0.012978271,-0.010900073,0.0424925,-0.015284546
7,0.057129152,-0.06024934,-0.07704393,-0.06448595,0.013165139,0.00044429302,0.0068861097,-0.00287728,0.013839804,-0.080123864,-0.057630107,-0.041409303,-0.036675893,0.06954477,0.07230387,0.07073923,-0.04874941,0.012821697,-0.02421518,0.08173955,-0.0050999075,-0.06749515,0.07886062,0.048362233,0.07113475,-0.07605459,-0.015270308,0.0149884,0.08311365,0.05173274,-0.01570201,0.026209489,0.052350663,0.028173812,0.03257987,0.045895167,-0.045236796,0.069610514,-0.045737524,-0.034264848,-0.05908548,-0.06837255,0.02743148,-0.08131853,0.023383044,-0.015511245,-0.08299222,0.0351924,0.0805502,0.059439622,0.022004738,-0.023590494,0.08103473,0.016419567,-0.0057182163,-0.016091913,0.074580364,-0.015279517,0.07369604,0.062090404,-0.05108629,-0.013581596,-0.055956755,0.07823943
8,0.023537807,0.060623877,-0.048292663,-0.010146953,0.0017499998,0.0548399,-0.07550691,-0.025965258,-0.05868862,-0.05369253,0.079651095,0.052158304,0.071947716,-0.06517597,0.03663189,-0.07292213,0.067078345,-0.024062581,0.0025790632,0.035387374,0.05183538,0.052915923,0.08382537,0.022431143,-0.06690352,-0.006155029,0.047131144,0.0038800612,-0.082506694,-0.07039766,0.061771043,0.071195714,-0.0025407225,-0.06193769,0.065538965,0.08152356,0.017000794,0.059880085,-0.012764126,0.07496234,0.017425455,0.01129096,-0.04035769,0.08242559,-0.011641093,0.06345736,-6.792694e-05,-0.024567042,0.03492152,-0.018009052,-0.03930618,0.055388607,-0.0288283,0.0790079,-0.017744228,0.004617654,-0.064275675,0.0027651116,0.00269825,0.009243324,-0.07888047,0.046950437,-0.05041275,0.077503465
9,0.083702736,0.05020424,0.04869289,-0.016992234,0.036955677,-0.0053090006,0.0045650303,-0.037936635,0.021431312,-0.028390583,0.0401728,0.032492347,-0.0077446327,-0.017446391,-0.014294885,0.052589886,0.06961141,0.00069618225,0.026445031,0.02060137,-0.018492572,0.015331775,-0.048772633,0.0035924092,-0.018808007,-0.06895048,-0.04009457,-0.06935417,0.051646106,-0.008447476,0.06422671,-0.048849504,0.01724448,-0.019504674,0.08408127,0.015853599,-0.033225186,0.032217517,-0.049440198,-0.033424955,-0.082410045,-0.07385817,-0.067610785,-0.08202678,-0.012195066,-0.021915939,-0.01036974,-0.012187868,0.05256305,-0.021312527,0.040658608,0.010875404,-0.017950825,-0.0022882074,-0.024315152,-0.032382365,0.0066838935,-0.049693428,-0.07996469,-0.08185926,-0.02052474,-0.026386008,-0.035842296,0.0035807788
10,0.044660084,-0.047835853,-0.043413635,0.031452365,-0.080994,0.061159812,-0.060775295,-0.031657286,-0.035300937,0.029625133,-0.028981075,-0.061544277,-0.011006765,-0.050922826,0.048873223,-0.060372274,0.010709353,0.05101732,0.02100198,-0.073358566,0.027795695,0.078534104,0.019453935,-0.061266556,-0.0056451783,0.021397159,0.074577354,0.025334299,-0.033684183,0.067670755,0.05951249,-0.05195601,0.019128568,0.022941664,-0.048765313,0.048752554,0.06264987,0.015624739,-0.009137638,-0.0015909076,-0.07338927,0.072074704,-0.03364229,-0.00055882335,-0.0827879,0.023846231,-0.018668808,0.071938165,-0.03890763,0.019900598,0.0026006997,0.067147054,-0.010592669,0.049655445,0.06773581,-0.013660856,0.07081968,-0.058661282,0.012840249,-0.03774473,-0.04911842,0.023597293,0.072713636,0.0603017
11,-0.051260225,-0.06658216,-0.0066367686,-0.011224858,0.019273363,-0.001995027,-0.051321473,0.06935076,-0.056849815,0.080492444,0.042247467,-0.01373449,0.07457579,-0.06893507,0.05796153,0.0013267025,-0.027985599,0.051638626,0.025254816,0.07377813,-0.051325627,-0.0050807744,0.04361049,-0.014040448,0.07024213,-0.0803722,-0.053396843,0.029727295,-0.052907445,-0.04754139,0.04141911,0.059765093,-0.07276388,0.032151774,0.015094183,-0.037196998,0.030099086,-0.008338451,-0.010914668,-0.03146147,0.06893817,0.020004258,-0.048145622,-0.008131973,-0.059943125,-0.05298582,-0.08085167,-0.04748319,-0.04784201,0.067997076,-0.011050701,0.053048126,-0.019938998,0.042301975,0.036115125,0.035291128,-0.072812416,-0.0017263368,0.00355082,-0.041791867,0.044305272,0.0073338747,0.07781597,0.0024564266
12,-0.12030828,0.06603047,0.026134241,0.05739952,-0.1295892,0.020892022,0.10403135,-0.00026747255,0.06802389,0.05399909,-0.027721636,0.081437014,0.0014889607,-0.011170447,-0.012659577,-0.038964342,0.11629262,-0.030179393,-0.007489396,-0.022451462,0.10188558,-0.032979973,0.04664332,0.056491513,-0.02561918,0.012254465,-0.014659503,-0.050856713,0.02705297,-0.083297566,-0.020408183,-0.06214064,0.0043134047,0.000463531,0.015837334,-0.028393796,-0.08560473,0.08337076,0.030899733,0.104216345,0.10946698,-0.025171004,0.078192115,0.0030464008,0.024923747,0.07224662,0.047060404,0.03497337,-0.09697442,0.015857374,0.03356042,0.0021398396,-0.019981254,-0.055755716,0.023373216,0.057735648,-0.019245265,0.12177138,0.03649904,-0.033147227,0.019944493,0.038006693,0.021556903,-0.011962921
13,-0.060637325,0.030152405,-0.02058069,0.039702114,-0.08839761,0.01465607,0.078306116,0.032239024,0.009541848,0.020656437,0.03932551,-0.0044282973,-0.047228076,-0.07126541,0.019501096,-0.039930664,0.007523516,-0.07482561,-0.12523933,-0.10932818,-0.03589098,-0.0057212273,0.059986234,0.087683305,0.11594768,-0.062511146,-0.017837584,-0.085704185,0.025114734,0.03607415,-0.03807746,-0.13068832,-0.092300326,-0.0043365182,-0.03737787,0.023294915,0.0027925123,0.020174272,-0.012780834,-0.05193209,-0.0049984916,-0.024675809,0.05665566,0.055445723,-0.0032482168,-0.016166473,0.05987223,-0.12904015,0.008600041,-0.018831337,0.0028588416,0.023234392,0.052241556,0.045035645,0.002892762,0.074163586,-0.024219869,-0.002368233,0.091001056,0.0015187323,0.08092068,-0.037889645,-0.0034905327,-0.0027801786
14,-0.050068572,-0.028238242,0.06289638,0.053545076,0.06506354,0.02390702,-0.057385195,-0.008074483,-0.021405276,0.010302737,-0.026545215,0.070657544,0.04117131,0.01617574,-0.04347651,0.03612613,-0.01863859,-0.021281725,0.021472342,-0.025267547,0.08265271,0.07387524,-0.0136194145,-0.009020108,-0.07375076,-0.033172224,0.059818238,0.024755524,0.013063806,0.031871136,-0.03634944,-0.041425485,0.091830604,0.037756354,-0.07328917,0.08745962,-0.029348904,-0.013857388,0.025777113,-0.057920404,0.016117329,0.061365798,-0.022739561,0.039430417,-0.06791281,-0.019371148,-0.017108716,-0.025772074,0.057833355,0.051130664,-0.040122584,0.09494966,-0.017924428,-0.059916385,-0.06394121,-0.016558342,0.018917756,0.062165055,0.04082276,0.015270393,0.03507941,0.06810317,-0.05833415,0.057487257
15,0.06931663,0.044112265,-0.024876468,0.055963434,-0.058404017,0.030442642,-0.015636776,-0.053678825,0.067741096,0.011112012,-0.019326178,-0.060133964,0.054044686,-0.07268344,-0.011962979,-0.0026053786,-0.08155669,0.037657995,-0.05116639,-0.07423842,-0.0053695464,0.019610362,-0.05418891,0.043947723,0.047041632,-0.06913638,-0.08447995,0.07254413,-0.007932387,0.05587928,-0.0749844,-0.076799,-0.027150469,0.08721404,-0.06509744,-0.024257217,0.04380341,-0.0218296,-0.05301989,0.03720298,0.004120598,-0.085776925,0.05922586,-0.08302667,0.045795873,-0.04074482,-0.0746246,-0.009242532,-0.024290547,0.026974684,0.015965693,0.056779243,-0.07262661,0.06803396,0.07476399,-0.04835882,0.06692766,-0.0243894,-0.06247723,-0.027004242,0.07374002,0.025965372,0.0190304,0.0528436
16,0.075361736,0.013027824,-0.0725372,0.022370502,0.0067560524,0.03370516,0.012977749,-0.048373923,0.0017392486,0.050185718,0.07865674,-0.048804943,-0.050491568,0.02995959,0.02845829,-0.00427562,0.07737269,0.053261153,0.015439592,-0.021789111,-0.055478267,-0.04688638,0.012300052,-0.03732314,-0.016398028,-0.0493172,-0.017583124,-0.02043473,0.06223633,0.0773331,0.016766556,0.006700039,0.030189157,-0.010979325,-0.054532725,0.05272729,-0.04173391,-0.014139302,0.074203216,0.07718419,-0.026172988,-0.05816234,0.08409449,0.054017074,-0.06328122,-0.071523495,0.031957783,-0.020805866,0.0547413,-0.044739336,0.061880253,-0.084011585,0.038892426,-0.061687768,0.04657563,0.05807861,0.048836805,-0.05786583,-0.0832879,-0.009786911,0.023010388,0.001557596,0.049118258,-0.04028782
17,-0.06168382,0.024250977,0.0057178736,-0.004761368,0.043810494,0.015335023,0.055162407,-0.082728796,-0.05193565,-0.0668333,-0.04040881,-0.053166695,0.008670665,0.055429347,0.034617648,-0.047195345,0.051173367,-0.06512357,-0.049157865,0.06547534,-0.05294226,-0.07953504,0.021935113,0.035277233,-0.006654136,-0.030287165,-0.065278456,-0.0064136162,-0.05601459,0.07121634,0.01736942,-0.05301504,0.027835809,-0.020157099,-0.043556366,0.028925486,-0.08289058,0.03306467,0.034081288,-0.018161103,0.05073967,0.014394298,-0.055360828,-0.06413479,-0.016104847,-0.0055412725,0.02158209,0.0475085,-0.036196485,-0.0017720163,0.034918793,0.06775909,0.0025428087,-0.009245649,0.0642148,-0.08184396,-0.048451535,-0.06704448,0.00070406497,0.018592663,0.05325926,0.06306038,0.04803949,0.013481244
18,-0.016733445,0.021906957,0.03814344,0.04947544,0.03817623,-0.05360445,-0.004392937,-0.024139713,-0.005215466,0.057214968,0.016137473,-0.05401469,-0.037427064,-0.009873465,-0.0029673874,0.055858128,-0.06433586,0.04961229,0.06476583,-0.021202773,-0.0030887574,-0.034670033,-0.06362921,0.014670968,0.0035606474,0.008928247,-0.06339798,-0.06091524,-0.003999546,-0.08130603,-0.010689035,0.03985221,-0.08134538,-0.011408582,-0.023386657,0.05058428,0.07557062,-0.03667479,0.059753187,-0.05903769,-0.02187284,0.015025422,-0.055248663,0.062990464,-0.032561254,0.022941463,0.037868068,-0.0038386658,-0.034621865,0.0623148,0.07487633,0.06394968,-0.08352982,-0.020323187,-0.056038536,0.07807834,-0.0771586,-0.042146817,0.04253035,-0.060222067,-0.035717677,0.02852559,-0.02801273,0.05134698
19,-0.07362571,0.080098026,0.059622966,-0.006999336,0.058448844,-0.050179474,-0.05517041,0.07307074,0.037445217,-0.029208656,-0.0735323,-0.042163443,0.057629548,-0.003603503,0.01649417,-0.026053,-0.023212261,0.073858716,0.025437877,0.06542767,0.052836828,0.020748891,0.01316113,0.0005161688,0.051254578,-0.045221575,0.0037491024,-0.004459679,-0.04474094,-0.047739953,0.017006211,-0.0054051057,-0.07506274,-0.030768078,0.07874072,-0.074684344,-0.06832219,0.079118796,0.04270553,0.06651396,0.029258274,-0.07339444,-0.06869519,-0.008012302,0.04191228,-0.067199804,-0.06685105,0.032173455,0.077205054,0.056699567,0.06469277,0.028774954,-0.022594452,0.031155072,-0.057887167,-0.0033387989,-0.023686055,-0.045200557,-0.060508445,0.060816072,-0.025999974,0.016164012,0.0065191463,0.059151225
20,0.0017623305,0.0736291,-0.06074762,-0.030929558,-0.07782845,0.018899478,-0.07521251,-0.033851236,-0.036606986,-0.01913593,7.8454614e-05,0.024797328,0.05928663,0.06363056,0.041119374,-0.009709075,0.002951242,-0.060237966,-0.037526958,-0.08175002,-0.00023724884,0.08017356,0.006681651,0.04723821,0.05377806,0.004453726,-0.012970589,0.0032260492,0.06316934,-0.026973873,0.07567509,-0.045218606,-0.006529376,0.03842736,0.0830377,-0.009939067,0.00010950118,0.020725004,-0.027965643,-0.02649356,-0.023263358,-0.051035974,-0.00029622763,0.05258546,0.02065441,-0.014145136,-0.060174055,-0.058781512,0.06772243,0.0071875528,0.042140476,0.008125134,-0.045209482,-0.051574245,0.005996458,0.069943674,0.07255579,-0.0436859,-0.043476667,0.07285967,0.0028204843,0.02435819,-0.057105392,-0.0035669059
21,0.046021737,0.045420684,0.042399548,-0.05743824,0.06926196,0.033508383,0.017390579,0.010679707,-0.01583182,-0.029822614,0.037341267,0.0059342086,-0.017865114,-0.025492206,-0.029404093,0.059702672,0.05712367,-0.015739031,0.06358557,0.04016394,-0.065757304,-0.016462341,-0.070617855,-0.027318794,0.018140629,-0.05262283,0.07181,-0.04486572,0.026781105,-0.058456603,0.06350707,-0.058874063,0.06109736,0.012695111,-0.052572433,-0.014519796,-0.0036698803,-0.013671063,-0.015707746,-0.004322529,-0.026719619,-0.07048502,-0.06515626,0.029162653,0.034088604,0.032240257,-0.061759904,0.058935724,0.06703972,-0.036479216,-0.075998954,0.0604923,0.04733699,-0.057949197,0.04374253,0.045058914,-0.0005812496,0.06681634,-0.068562545,-0.024048865,0.068173,0.022131525,-0.05410646,-0.0013202056
22,0.018474877,0.0067037493,-0.077017315,-0.061894752,-0.064893365,-0.008596301,-0.05077771,-0.05160988,0.07533435,0.0197196,-0.026198655,-0.010671243,0.0370885,0.022960335,0.071209796,0.02301731,0.047510378,-0.08080394,0.06791187,0.01655566,0.04407809,0.06529606,0.076435916,0.06973074,0.032215253,-0.018498965,-0.06339553,-0.04467055,0.024534352,0.07323723,0.022099182,0.021155901,0.009087764,0.037877753,-0.026552822,-0.01088611,0.010517791,0.08214534,0.042108156,-0.06898572,0.013778672,0.045372345,-0.043384116,0.08118849,-0.0344745,0.006555386,-0.06698847,0.006350927,0.038218208,0.06050662,0.058737583,0.07570889,0.074683346,-0.029675934,-0.05243736,-0.012275189,-0.06467856,0.054968692,0.04730422,-0.03436889,0.046911143,-0.03676935,-0.08396481,-0.049081035
23,0.04078734,-0.07209626,0.0803433,0.07727278,0.038909875,-0.012796089,-0.0011897683,0.014311045,-0.0020880252,0.0010192245,-0.073397025,-0.06007827,-0.037657574,0.060111426,0.036222696,-0.041278664,-0.029092863,-0.071113616,0.031007208,0.04618483,-0.06346129,0.0032469705,-0.07134677,-0.057634555,-0.057542644,-0.022466,0.029132552,-0.020929746,0.076186545,0.03174316,-0.06423268,-0.07627908,-0.02462935,0.05456329,0.06034211,-0.06739648,-0.039488394,0.027517676,0.03094741,-0.0555771,-0.01981464,0.037221923,-0.009366721,0.019141845,-0.05991216,0.042695694,0.05263149,-0.011898741,-0.049814478,-0.065101855,-0.018155709,-0.077371486,-0.0017941818,0.009547077,0.014784522,-0.03838787,0.07721435,-0.027197644,-0.07537269,-0.05767952,0.058786906,-0.056937054,-0.03195145,0.04365874
24,0.04913757,-0.022232484,-0.013647057,-0.050302733,0.029669836,-0.08041867,0.030624546,0.06192983,-0.010747738,0.066274814,0.046635114,-0.018647656,0.077431284,0.08118855,-0.010142043,0.009320356,0.010893129,-0.059999857,-0.076133646,-0.077478014,-0.019728728,-0.03080624,0.01115647,0.06847922,-0.05359342,-0.044020735,-0.05892819,0.0649439,-0.044796973,0.077916615,0.027687341,-0.074459955,0.050994836,-0.08162801,0.005349569,-0.06331042,-0.064296395,0.044606797,0.032891355,-0.08374848,0.029479697,0.07650726,-0.07797447,-0.030275974,0.011861496,0.03090477,0.07932042,0.066899486,-0.036479898,0.06082862,0.070032276,-0.022495642,-0.040782087,-0.016852312,0.052430265,-0.077172324,0.06774544,-0.05194923,0.074970715,-0.033842836,-0.022000168,0.044537567,-0.07036723,0.034208335
25,0.015211366,-0.06685181,0.070953555,0.03987375,0.026688531,-0.0102095455,-0.022398278,0.059866913,0.07489275,-0.053320173,0.02901332,-0.072486505,0.05467259,0.014040291,-0.040997155,0.022151746,-0.059815332,-0.03730451,-0.010502987,-0.04021099,-0.07858317,0.052515753,-0.045697574,-0.00093429536,-0.067421004,-0.018894307,0.012084484,-0.07772108,0.05282674,0.07817621,-0.045260157,0.07656971,-0.017234355,-0.06918047,0.024937816,-0.020600446,0.011911593,0.0044414923,0.04443284,0.022355378,0.07667982,0.049527712,0.024581358,0.04291912,0.035083763,-0.06963042,-0.07386722,-0.081359655,0.0663343,-0.013754524,-0.07404031,-0.046075106,0.07902404,-0.0807022,-0.057654053,0.018046372,0.064249165,-0.059584305,-0.010384306,0.018417545,0.027912319,-0.07580274,0.035780467,0.083053224
26,-0.0041857734,-0.0008530095,-0.015252642,-0.025583997,-0.07350849,-0.022166945,-0.00459487,0.043979056,-0.009969406,-0.07000055,-0.071012214,0.004856363,0.038676195,-0.03939107,-0.027509999,-0.034494314,0.042769216,0.04639805,0.06953616,-0.04117037,0.008734174,0.0076692104,-0.010590062,0.017245479,-0.052369498,0.015541732,-0.024269126,0.061288916,0.03468734,-0.016106032,0.065386645,-0.024586454,-0.019379131,-0.004275039,0.028853647,-0.069016166,-0.021328352,0.053142585,-0.059244014,0.046296693,0.010289721,0.0027803928,-0.01816371,0.007922679,-0.014896445,0.07030045,-0.032174658,0.057762884,0.021040365,0.011025414,0.032935195,0.06869904,0.08292741,0.0029797181,0.07911878,0.029675432,-0.040779963,-0.036950905,0.06675083,-0.004329726,0.067656435,-0.059902593,-0.06234715,-0.039529186
27,-0.06820428,-0.08241257,0.026539288,0.045938857,-0.074900754,-0.06204685,0.027918555,-0.016045824,-0.06770203,-0.0039412454,-0.020922765,-0.06621746,-0.03958265,-0.04697356,0.047493435,0.07019641,-0.07983014,-0.023749527,-0.04153372,-0.00381241,0.061091103,-0.074310884,0.05501201,-0.029027723,0.0071529746,0.026517347,-0.05225398,-0.040781766,0.009593584,0.06800374,0.068727694,0.043059267,0.0018604249,0.03868769,0.035755195,-0.056227535,0.00643909,0.06927199,0.061224647,0.06616423,-0.06469438,0.032981344,0.05479645,0.039784722,-0.028974839,0.03668552,0.0747656,-0.024692241,0.07771552,0.029716447,-0.00041128695,-0.067468174,0.00018921494,0.06620487,-0.0541209,-0.03995158,0.062391825,0.083790295,0.046455763,-0.059113435,0.023685329,0.04156395,-0.014451273,0.0050687864
28,0.04734174,0.030068569,-0.07968785,-0.07367106,0.04975622,0.06413109,-0.021561168,-0.059479397,0.023801267,-0.062046226,-0.023527902,0.05191187,0.029798388,-0.041040655,0.04652656,-0.026904766,0.03895811,0.074217625,0.046332292,0.058896847,-0.053122774,0.026375882,-0.056118876,-0.0036628023,0.07805856,0.014776878,-0.045464035,-0.057846777,-0.063209884,0.06400593,-0.063819915,0.035697624,-0.0164771,0.007323362,-0.0020191148,0.041599207,0.04364317,0.080544956,0.021810234,-0.05514941,-0.0290705,0.009224772,-0.04239828,-0.058282666,-0.049065713,0.0678769,0.053433485,0.0062769875,-0.04481057,-0.028203774,0.03580343,-0.07741324,-0.071649335,0.051653303,-0.0157874,-0.07925292,0.06462387,-0.050223477,0.008837,-0.03779439,0.041158624,-0.002991788,0.08316695,0.06587169
29,-0.06351065,-0.0053542033,0.028155558,0.07758062,0.0018923879,-0.027684033,-0.074092366,0.03640999,0.05689814,0.06539882,-0.026722606,0.029928721,-0.0012342483,0.043147735,-0.062865525,0.0049834326,-0.025765453,0.056022696,0.04270219,-0.05338557,0.036052212,0.06579497,0.056614406,-0.046102438,0.039411083,0.044928797,0.030883536,-0.07528972,-0.046491824,-0.012852982,-0.0049258918,0.030127004,0.050084718,-0.04481785,-0.064739846,-0.022095188,-0.013547666,-0.06628264,0.07129734,0.012852587,-0.043527085,-0.0053957403,-0.02845576,0.010158464,0.07979653,-0.008555807,0.018030725,0.0027602613,-0.020204581,0.02600661,0.0013340414,-0.048473716,-0.04414393,-0.055466413,0.03144998,-0.007112503,0.03348662,-0.05115879,0.06334429,0.036567397,-0.016857803,0.055932812,0.048127912,0.074174814
30,0.07766607,0.072342314,0.033045657,-0.014943071,0.05027441,0.0486063,-0.010742903,-0.06567055,0.026576929,0.04795695,-0.06856164,0.07681603,0.041400738,0.08365158,0.043015204,0.0234605,0.008715041,0.0038106516,0.0530368,-0.015365832,0.04042796,0.013511226,-0.016179092,0.021947883,-0.05525899,0.053974964,0.032399632,-0.00046747923,0.002797559,0.016180992,-0.04609211,0.018585041,0.026134945,0.008259356,0.07453311,0.07581212,-0.056735784,0.07631708,0.06564706,-0.05646015,-0.07349927,-0.03779423,0.017847404,0.07996037,0.06458109,0.02546361,-0.038568642,0.022203445,0.06497715,-0.06751408,0.014258623,0.026283711,-0.0065844655,0.002005659,0.011700399,0.075426586,0.021837927,-0.080099694,-0.066847906,-0.061519787,-0.04500011,0.031072572,0.0701045,0.001010336
31,0.06956931,0.07760366,-0.05208177,-0.021208204,-0.019029237,-0.0058336556,-0.025440726,0.014816567,-0.027561098,0.047924794,-0.038019143,-0.068123326,0.0010663718,0.01616519,-0.07191009,0.005195789,0.08218893,-0.054745447,0.06160053,-0.00030772388,-0.07091325,-0.014389403,-0.009650074,0.01188051,0.06225287,0.018224515,0.05834987,-0.030973557,0.025885299,-0.0060272813,-0.04995731,0.028068066,0.074386366,-0.046953946,-0.027885783,0.03625053,-0.049604025,0.047149815,-0.07039866,0.06828465,0.051836215,0.074577935,-0.01759307,0.014940284,-0.06827893,-0.013130866,0.07463267,0.062014945,0.021923497,0.07037764,-0.069633126,0.056104504,-0.031173144,-0.02175558,-0.07185973,-0.007636875,0.0149602,0.0415769,0.033656523,0.0103722885,-0.02246821,0.06848358,-0.032704163,0.06896008
32,0.018442605,0.051564775,0.07576392,0.083145164,-0.056460537,0.014378709,0.0052196262,0.028773718,-0.07666529,0.050446324,-0.0064709163,-0.037325468,-0.011373326,-0.03630739,0.012144148,-0.044747498,-0.057102997,-0.041848265,-0.04758833,-0.029894546,0.0413155,-0.08434996,-0.018556865,0.07930601,0.094739616,0.012053498,0.03612242,-0.016691657,0.017467467,0.05431043,-0.07683899,-0.036138263,0.0069226287,-0.004078934,-0.03646688,0.07211139,0.0013943863,-0.06671168,-0.06841219,0.0408133,0.010715882,0.013429317,-0.07314557,-0.082544856,0.012582649,0.044873394,0.04002321,-0.01801983,0.035531946,0.017894026,-0.061674375,-0.08377029,0.07070752,-0.06864153,0.04667749,0.017202357,0.018367484,-0.050209966,0.08363258,-0.005361803,-0.069801465,-0.04559321,-0.06887399,0.007828485
33,-0.08043932,-0.04944275,0.07306851,-0.005413669,-0.01856406,-0.035642467,0.115232624,0.029975064,0.058544368,-0.043116044,-0.0035796757,-0.03882781,0.012188233,-0.055259928,0.07819889,0.026616417,0.00879371,-0.030411012,0.0045651607,0.006844574,0.021613328,0.04876544,-0.002447154,-0.06195071,0.04495784,0.0021239696,0.112596944,0.005146776,0.06546651,0.033371884,-0.0721862,-0.11295387,0.04653972,-0.010136506,-0.04057674,0.0024242143,-0.03538777,0.10799806,0.00991668,0.10070509,0.1007864,-0.0015313616,0.04732614,0.041772448,0.02373867,0.042646978,-0.043119483,0.0053910636,-0.00055187324,-0.056730982,-0.060152084,-0.07062544,0.035997365,0.032482643,0.0018162742,0.026626008,0.08867316,-0.007369885,-0.011550471,-0.032582965,0.022083677,0.06231051,-0.066750154,-0.04696711
34,-0.09120012,0.07609752,-0.023170665,0.13262221,-0.03746086,0.10341585,0.17507946,0.06168185,-0.16208917,0.040268335,0.13181321,0.0062894598,0.021654688,-0.12916422,-0.019036125,0.04900346,0.08285353,0.027242327,-0.13365607,-0.06958791,0.17948478,-0.12634933,0.052774515,-0.019289328,0.19091016,-0.004329642,0.047013775,-0.059417926,0.15811507,-0.038350623,-0.09828341,-0.110633224,-0.060390003,0.10805387,-0.065562025,-0.067350514,-0.1147961,0.20544657,0.14169645,0.16030656,0.13197124,-0.14760228,-0.033833433,0.008790672,-0.17608503,0.11290085,0.11116337,-0.06833582,-0.10513449,-0.16950388,-0.080139734,0.05361644,0.16056085,-0.065083444,-0.030723678,-0.08304956,0.03853748,0.13141179,-0.044195514,-0.0012205975,0.12933137,0.0025746746,-0.17837626,0.070444256
35,-0.14944173,0.14365871,-0.039582353,-0.04178957,-0.010019525,0.077839635,0.10194547,0.17355514,-0.03465376,0.06052078,0.08948259,0.06518806,-0.055895343,-0.1357568,-0.031223245,-0.019617401,0.059132725,0.13899885,-0.11509686,-0.19303074,0.17349654,-0.15114497,-0.03718475,-0.0294208,0.053489625,-0.043674286,0.051956765,-0.08410106,0.20126708,0.025959207,-0.12653665,-0.16710977,-0.06295023,0.067212306,-0.099386945,-0.13341184,-0.1654725,0.101016015,0.17335057,0.13788871,0.11254784,-0.12592606,0.06409162,-0.04133544,-0.042920694,0.1760753,0.040779755,-0.13432094,-0.19502364,-0.17409511,-0.033966217,-0.08854914,0.09369966,-0.030446574,0.06818871,0.11293183,0.1605987,0.16660757,-0.020650402,-0.013541054,0.11093787,-0.107969634,-0.12922256,0.14109951
36,-0.0057169674,0.071861856,0.00607476,-0.09807981,0.018222742,0.104864754,0.008284577,0.08823663,-0.025920244,-0.06286029,0.10370218,-0.038714476,0.017526507,-0.09368831,-0.08163592,-0.024177875,0.045682836,0.02235218,0.01695117,-0.11940471,0.1195124,0.004795408,0.038975094,0.016843371,0.1829232,-0.10523834,0.099886574,-0.10465609,0.08842673,0.015026531,0.12339676,-0.1804244,-0.010265438,0.13213229,-0.044685543,-0.14102189,-0.18341714,0.105725236,0.13457388,0.07148329,0.10777037,-0.09192047,0.014231414,0.02876176,0.045778308,0.0002661052,0.09122332,-0.07628743,-0.09080648,-0.03498077,0.049236104,0.01908174,0.12743776,-0.0078123542,0.10320672,0.088619076,0.13289185,0.16866103,0.04090494,-0.07253125,0.10778429,0.026365237,-0.18013452,0.036098517
37,-0.09192209,0.035857305,-0.05222573,0.028245717,-0.14624703,0.14836875,0.014133254,0.042096943,-0.024485417,-0.07461733,0.1034077,-0.06763453,-0.028967964,0.033497434,0.0673218,0.05088698,0.051207863,-0.04050576,-0.1214607,-0.055696234,0.070661604,-0.12080198,0.0005537637,-0.028453596,0.07859075,-0.0070327334,0.008093453,-0.10890865,0.041868813,0.06778855,-0.040133454,-0.1688673,-0.013686251,0.08703009,-0.042246368,-0.1435419,-0.01272279,0.07135559,0.0485853,0.0125086745,0.13052325,0.050112735,0.0007586343,-0.0084721595,0.048432276,0.12230194,0.09555574,0.037146956,-0.075903945,-0.009230516,0.082435615,0.0015092989,0.09899202,-0.057441488,0.040740095,-0.014899167,0.08592945,0.03376332,-0.082777195,-0.08112196,0.11972553,0.056929447,-0.13697508,0.12801516
38,-0.14193466,0.023051191,-0.074729815,-0.06910516,-0.07398236,0.07207089,0.00072886294,0.15435869,0.050244585,-0.053189818,0.13435988,0.051491626,-0.024073401,-0.08305522,0.075195365,0.05838407,0.056623213,-0.10262966,-0.013629912,-0.08928855,0.03420737,-0.05061121,0.13904086,-0.031884965,0.06473919,-0.032767404,0.140044,-0.109523565,0.13099815,0.032363746,-0.006919372,-0.07525459,-0.06673817,0.08174033,-0.028909212,-0.106410466,-0.09686235,0.09441355,0.108106546,-0.019816203,0.08780961,-0.002145693,-0.12364643,0.03867854,-0.0933142,0.09019511,0.0362735,-0.025107952,-0.056542993,0.07208653,0.0404071,-0.042102173,-0.0019476106,-0.053254273,-0.051452205,0.004734077,0.09411627,0.0860467,-0.003056301,0.034781143,0.02058203,-0.04319317,-0.093728125,0.0127148945
39,-0.09914415,0.07511119,0.047659915,-0.1568367,-0.069110356,0.110019505,0.118772775,0.075341806,-0.015745517,-0.187337,-0.09356912,-0.04714179,0.033940803,-0.14295213,0.081647426,-0.0606531,0.20592599,0.06550117,0.034377605,-0.067055985,0.07736348,-0.017448772,-0.03754706,0.039453268,0.11313323,-0.09392053,0.05949318,-0.056679547,0.17247534,0.05464089,0.031070163,-0.0705261,-0.033679605,0.024060233,-0.06282557,-0.112096794,-0.21946618,-0.045944672,0.12928782,-0.034529336,0.12812349,0.18518125,-0.11598159,-0.012272738,-0.03832555,0.21694438,-0.032179587,0.017212372,-0.0020049522,-0.09954761,-0.0512953,-0.034124162,0.08817002,-0.035562463,-0.0444951,-0.0014432208,0.08185251,-0.09523395,0.05462057,0.04996625,0.043363627,-0.13300695,-0.09626305,0.19178519
40,-0.17074756,0.11031543,-0.066488005,-0.048741907,-0.15140893,0.18367614,0.068152964,0.009038107,-0.075498484,-0.01862779,-0.008752294,-0.02289185,0.08617147,-0.14640902,-0.15392193,0.07356116,0.047291793,0.14126585,0.066507295,-0.06768118,-0.026223682,0.047651146,0.008042989,-0.12230755,0.16751613,-0.13155384,0.019514017,-0.020506743,0.2902559,-0.03424409,0.099373125,-0.12939328,-0.12302604,0.070326686,-0.039804608,-0.07468814,-0.089653865,0.033805937,0.2191179,0.009912658,0.1041644,0.16143028,-0.06634635,0.08251319,-0.039026976,0.22464857,0.10208242,0.056208987,0.06431061,-0.11384836,-0.124776125,0.04445678,-0.03472339,-0.13044088,0.07757025,0.027014388,0.090574116,-0.03228525,-0.055334702,0.027321447,0.119803295,-0.03733037,-0.10469292,0.191313
41,-0.35242087,0.104301535,0.06756862,-0.04665229,-0.14135751,0.16939774,-0.0048121745,0.059403062,-0.026117014,-0.0867059,-0.10153758,-0.03531059,0.12425039,-0.21192627,-0.15981455,0.053889986,0.054919932,0.028501138,-0.077008896,-0.058259945,0.007879286,0.081883505,-0.065352365,-0.027191872,0.20166333,-0.11293946,0.047156885,-0.07344186,0.20624535,-0.054108206,0.07098844,-0.062156223,-0.10981565,0.04961129,-0.054399595,-0.07924672,-0.14891556,0.06360087,0.3088449,0.026908934,0.10704977,0.0507825,0.026798334,-0.03570563,-0.15221843,0.19114739,0.108808435,0.00033959612,-0.07454122,0.005053885,0.048604425,-0.038070567,0.062731,-0.08877023,0.06880838,0.12052677,0.03255577,-0.04648618,0.06369874,0.030075867,0.096978724,-0.061436426,-0.15242404,0.19967453
42,-0.20734903,0.06390667,0.03186081,0.025885362,-0.10950913,0.060336974,-0.0032894535,0.1574209,0.10421217,-0.04304201,0.07920833,0.1889487,0.16996534,0.14295179,-0.045527678,0.051109165,-0.056664146,-0.046068,-0.113801755,-0.06381066,0.22093332,-0.13800384,-0.013967678,0.15533617,-0.024648607,0.07950454,-0.10901862,-0.047338985,0.27533302,0.017894603,-0.00034780978,-0.110598266,0.08421229,0.059692655,0.04424257,-0.0126592815,-0.19917558,-0.056567755,0.097151645,0.034764808,0.1260593,-0.039683357,0.04429909,0.07454654,-0.0078087132,0.1232329,0.0048495713,0.13460642,-0.22346726,0.061340854,-0.032446995,0.09670093,-0.06936055,-0.07984995,0.274352,-0.17882596,0.23318839,0.13069025,0.10482029,0.039908037,0.14502724,-0.015016637,-0.21616071,-0.06934086
43,-0.2655563,0.071378455,0.110136375,0.057837546,-0.1961979,0.068009764,-0.015147135,0.23826046,-0.025733838,-0.057350826,-0.07990819,0.15379272,0.28186262,0.012835274,-0.11604251,-0.0187587,0.034661844,0.09538685,-0.14676967,-0.0782658,0.17331558,-0.043843128,-0.08928506,0.12949124,0.1452649,0.15356971,-0.1765001,-0.13354988,0.25888237,-0.22576877,-0.13060546,-0.15554516,-0.0137861995,0.23085518,-0.20376335,-0.05546629,-0.17076057,-0.053796507,0.039780293,0.05756625,0.076114,-0.020877678,-0.041120254,0.13371307,0.07841532,0.2888669,0.13173527,-0.06061653,-0.1327336,-0.16935316,-0.07834697,0.09704013,-0.18199353,-0.17467616,0.114611626,-0.21927261,0.25479066,-0.16961761,0.15181533,-0.0483437,0.16371801,-0.16029018,-0.11194215,0.049331054
44,-0.009377008,0.057455905,-0.1691578,-0.024413506,-0.2643927,0.1601852,0.07364373,0.2340996,-0.1927232,-0.16638118,-0.15234895,-0.07976536,0.079423524,-0.121378586,-0.053051338,0.0438245,0.16041245,0.29497868,-0.17190652,-0.17385136,0.075121745,-0.022149047,-0.22414875,0.023126295,0.17758833,-0.15210149,0.06440136,0.055514775,0.20929942,-0.25728974,-0.18041368,-0.08483563,-0.04488227,0.19867276,-0.026423967,0.1375965,-0.0843277,0.10747801,0.050190907,0.13225675,0.19857632,0.13772088,0.014637304,0.120256454,0.10562222,0.31103942,0.09639212,-0.27423513,0.0867207,-0.20118746,-0.10501786,0.12112871,0.27507743,-0.16134764,-0.21869588,-0.022870032,0.18133053,-0.17942333,0.036948793,-0.09494936,0.14578086,-0.14068566,0.027202163,0.27669945
45,-0.11701872,0.011417454,-0.18097353,0.06997908,-0.18968149,0.16782668,0.15506966,0.27998975,-0.06927671,-0.0971563,-0.18070064,0.068675146,0.16071996,-0.13670368,0.046810966,-0.06653383,0.21861425,0.10428281,-0.12863447,-0.07084604,0.03078425,0.08008971,-0.10205129,0.004706531,0.21897216,-0.09238022,0.111521445,-0.022496825,0.22843422,-0.275131,-0.15553908,-0.18045275,-0.06842232,0.27271706,0.011365176,-0.01409334,-0.24052753,0.23730023,0.21039644,0.0865951,0.2754286,0.14515397,-0.031543612,0.1097786,0.03244699,0.14772016,0.069034986,-0.20935188,0.034573596,-0.09875642,-0.088487945,0.09634284,0.13183504,-0.21692221,-0.21166387,-0.17903489,0.15361662,-0.092103444,-0.011783261,0.05707448,0.0958631,-0.09020304,-0.0006210366,0.14951593
46,-0.09541186,0.095381334,-0.16974652,0.060190704,0.02900111,-0.06552062,0.05794382,0.032802623,0.1102556,0.028685115,0.066879965,0.18715656,0.11735474,-0.13678613,-0.027588878,-0.020683214,0.14118826,-0.23263793,-0.015420167,-0.09475054,0.03590583,-0.058085565,0.09022348,-0.108990155,0.1133058,-0.00828933,0.10869108,-0.06605069,0.075974636,0.09177253,-0.012699597,-0.08085748,-0.04744264,0.058638617,-0.043737706,-0.15566787,-0.14114094,0.16070955,0.116790675,-0.00742731,0.18488914,-0.026630107,-0.07636457,-0.016761897,-0.14676139,0.07929635,0.09530709,-0.23925664,-0.06561721,0.10675868,0.060355913,-0.07007443,0.10361483,-0.021909742,0.10701399,-0.13989095,0.06827845,0.083575256,-0.07122946,0.025495911,0.04653569,-0.05367287,-0.09781708,-0.036317363
47,-0.2727609,0.05929899,-0.13843404,0.030861136,-0.12875026,0.18866438,0.14463337,0.21543203,0.070318654,0.003486008,0.051714145,0.20836975,0.054369133,-0.07092071,0.014584158,-0.06728205,0.1245056,-0.037574068,-0.18854988,-0.17067719,0.056113783,-0.09679767,0.1641967,-0.15239012,0.17131877,0.03526643,0.20393927,-0.12849641,0.23850386,0.11292677,0.19090998,0.015370171,-0.14900193,0.1178973,-0.093230754,-0.19460462,-0.1230161,0.14936951,0.024922706,0.045769863,0.033521015,-0.10760466,-0.062135328,0.047232024,-0.076826744,0.2608599,0.09254626,-0.24067506,-0.13799202,0.06946288,-0.034906525,-0.09771541,0.14584221,-0.12431504,-0.038528807,-0.26366693,0.15357833,0.04294276,-0.084318936,-0.118474945,0.080100015,-0.05538742,0.030022943,0.12709758
48,-0.15734805,0.13414195,-0.12919068,0.039127547,-0.15468295,0.22933069,0.25019923,0.19845219,0.10843286,-0.04291316,0.14207861,0.20028745,0.18856846,-0.18652886,-0.0061979783,-0.050585505,0.19432706,-0.11469397,-0.12596041,-0.2503203,0.14945522,-0.07825131,0.2311207,-0.02407231,0.20163445,0.21034205,0.149064,-0.25251418,0.19460154,0.017026432,0.16734885,-0.0056912834,-0.14879067,0.23983134,-0.03456355,-0.20995261,-0.1408812,0.21779546,0.067294315,0.04013614,0.10041604,-0.2639717,-0.048534155,-0.073803,-0.16139749,0.14944269,0.014566009,-0.27014154,-0.17909886,-0.009285287,-0.003752932,-0.10214071,0.16833693,-0.041194357,-0.086532794,-0.21024872,0.25385973,0.23822556,-0.07503723,-0.001460441,0.01936696,0.012630815,-0.0431377,0.21892671
49,-0.15459557,0.076393,0.03373753,0.06332647,-0.11204633,0.03843231,0.18253443,0.11909912,0.21582228,0.031066177,0.14723998,0.04523754,0.22647335,-0.07009307,-0.037401292,-0.0028260574,0.21108751,-0.20989251,-0.0545308,-0.061487284,-0.002478746,-0.07271938,0.15552296,-0.043874133,0.12750581,0.24798982,0.20809352,-0.2157366,0.06259572,-0.01630094,0.0347945,-0.2090541,-0.14655927,0.093967706,-0.061720565,-0.14951143,-0.1581986,0.23867092,0.007680297,0.019756287,-0.007956132,0.04057173,-0.06261094,-0.06179548,-0.14782861,0.15232244,0.06646385,-0.049627267,-0.111636676,0.15701625,-0.042341508,-0.08698134,0.109597534,0.09562518,0.07498068,-0.089488335,-0.008064636,0.121559665,-0.0010826265,0.028284837,0.026078098,-0.06383844,-0.07026819,0.110673726
50,-0.16799106,-0.0454872,-0.026136667,0.05806009,-0.038746737,0.0013381488,0.09449879,0.0006311336,0.096836485,-0.08141204,0.125108,0.045426358,0.13112418,-0.14131378,0.045848403,-0.021907296,0.002829495,0.0039111646,-0.080314405,-0.13071284,0.10871502,-0.06522052,0.107065775,-0.060155556,0.15469624,0.032500427,0.007612632,-0.032422382,0.107673794,0.018729962,0.051222343,-0.01626784,-0.0028401054,0.097170934,0.051264443,-0.03561881,-0.14868452,0.071363,0.07261832,0.08422185,0.13849089,-0.10174337,-0.055759206,0.036979042,-0.026934177,0.037733033,-0.011853812,-0.014464463,-0.1176686,-0.09692734,-0.038664803,0.064888,-0.018940972,-0.016183145,-0.015205869,-0.065809324,0.0011936539,0.015762506,0.0464602,0.08815639,-0.018883156,-0.0972626,0.023633435,0.02946646
51,-0.119201526,0.08591765,0.06292216,0.028888168,-0.15783639,0.04756327,0.013308201,0.13459542,-0.06731816,0.043803893,0.0719205,0.03768085,-0.028204054,-0.04859275,-0.002604112,0.0012492537,0.12451156,-0.040903013,-0.119695224,-0.06425342,0.039329495,-0.13145898,0.14252332,0.023413531,0.14996639,0.078052476,0.00014604353,-0.0798619,0.027257318,-0.0139185125,-0.09644092,-0.08469675,-0.08720194,0.14457414,-0.039637923,-0.13759007,-0.13472167,0.07739067,0.018158928,-0.0069529195,0.10088752,-0.118414134,-0.13920157,-0.0065104812,-0.030241214,0.05245619,0.06514724,3.460623e-06,-0.0051315627,0.0030380187,-0.10040501,0.018108185,0.039016895,-0.1160879,-0.057822112,-0.10716649,0.13109396,0.14034143,0.07373691,-0.04252586,0.0049527646,0.044979718,0.046082254,0.085174926
52,-0.015047058,0.071678855,-0.067256674,-0.007428311,0.026106343,-0.065124854,-0.040265057,-0.008182667,-0.028058577,-0.05120363,0.056875326,0.03181299,-0.019549534,-0.04428991,-0.035208724,0.08259917,0.07184916,0.061784007,-0.04307838,0.029078498,0.026089095,0.0477845,0.082183905,-0.016886503,0.02126225,-0.0061822683,0.038481466,-0.079897664,0.012395799,0.03269638,0.005893737,-0.037504174,0.061328925,-0.016694777,0.03211361,0.011730902,0.0354044,-0.045068257,0.0657463,0.0011888444,0.017556794,-0.031122867,-0.01599326,-0.069038086,0.07226602,-0.06038577,-0.04315046,-0.051092587,0.041834496,0.075946815,-0.049045317,0.07626393,0.038228817,-0.0023890287,0.057540365,-0.066810876,0.040516786,0.05448144,0.041379623,0.07134072,-0.04622022,0.08243316,-0.0009853318,-0.030566946
53,-0.07769916,0.047195278,0.0417464,0.046962567,0.032481097,-0.045109145,0.033656284,-0.067372896,0.035541035,0.040248655,0.0042170957,0.049848147,-0.032489076,0.06544518,-0.004107356,-0.048054412,-0.0052710176,-0.02607911,-0.046811115,-0.022856869,-0.07429398,-0.06508891,-0.0060946047,0.058308996,-0.081267044,-0.020762749,-0.026307713,0.04768332,-0.037148263,0.07872722,-0.001315996,0.058990307,0.07825797,0.015979186,0.012328416,-0.04551666,0.03399884,0.08167542,0.07111824,-0.061625138,0.012892492,0.02257558,-0.0032359362,0.006493576,-0.06187841,-0.027366605,-0.037987497,-0.008804649,-0.042135064,0.005373314,0.072636195,-0.07421352,0.012777038,0.045420475,0.043720476,-0.05507172,0.01420071,-0.07309671,-0.010213874,0.018674783,0.04980304,0.0015084967,-0.021910284,-0.059389614
54,0.044392712,-0.05178765,-0.0512137,0.0051971152,-0.06827456,-0.037269674,0.04496307,-0.063264534,0.063388266,-0.031840928,-0.051210493,0.073778115,-0.033993047,-0.039339587,-0.018105231,-0.020173483,0.072282545,0.07048904,-0.02249524,-0.08196808,-0.04722699,0.08082334,-0.034004297,-0.024551399,0.05972492,-0.041122276,0.06927044,-0.0027324036,-0.05869265,-0.017082758,0.046740018,0.052110456,-0.040451143,-0.078228906,0.059886,-0.06707133,-0.05439553,0.04117266,0.035067298,0.06315283,-0.038478818,0.018034138,0.038157277,0.03629539,-0.037783176,0.06089542,0.05916909,-0.06561971,0.050559394,-0.04332363,0.05147905,-0.08027551,-0.023613375,0.07130071,0.032915205,0.07567238,-0.064261,0.050341643,-0.008939259,0.034795195,-0.03796654,0.055823185,0.022844613,0.016396105
55,0.036062337,0.008258596,-0.06110552,0.07178379,0.07223935,-0.044838987,0.023683585,0.078290276,0.04125964,-0.04084175,-0.006016992,0.07691119,0.051494442,-0.039140042,-0.08222739,0.08024772,-0.080085754,0.031564474,-0.010338336,0.0021264479,0.008639902,-0.02656642,-0.054215938,0.0038045347,0.03868947,0.058893047,0.06053538,-0.0614724,0.032079697,-0.057099074,-0.05702664,0.052812092,0.043162845,-0.043424025,-0.04489829,-0.046919312,-0.03402128,-0.052923933,0.06413596,-0.05267874,-0.06677306,0.06670154,0.011148989,0.0011647046,0.018860333,-0.02282831,-0.07038831,0.02145949,0.027701825,-0.032554455,0.024223484,0.019468077,0.014992051,0.000530608,0.07116666,0.06310659,-0.016829245,0.011853136,0.037516207,-0.02347985,0.07112048,-0.0029070377,-0.03468676,0.076669164
56,0.005283892,-0.05990502,0.039473392,0.021915115,0.017132938,0.00014571846,-0.0066337213,-0.0248456,0.0046347976,0.053779684,-0.031072427,0.083123796,0.038137525,-0.057717025,-0.04866287,-0.052320983,0.0017442033,-0.03925253,-0.077748656,-0.012557395,-0.026260845,-0.05916195,-0.07166221,0.042059742,0.06380377,-0.02661774,-0.045096774,-0.062199786,0.07794712,0.07681828,-0.06212045,0.033813134,0.018835261,-0.06770366,-0.06428205,-0.06677677,-0.0699293,0.072942294,0.025208771,0.07518963,0.028131738,-0.017298065,0.05423259,-0.045767784,-0.029224198,-0.08350851,0.08337615,-0.020972304,-0.0003771931,0.017121807,0.08077911,0.0019912794,-0.052291706,0.053199522,-0.024837099,-0.062811576,0.008463256,0.021562055,0.019703597,-0.039729834,0.014657818,-0.023625549,-0.052404694,0.050396092
57,0.07323033,0.01397936,-0.035409335,0.059579812,-0.03632431,0.04988479,0.043867417,0.048301987,0.006595753,-0.034233082,-0.05433354,-0.0721857,-0.06592085,-0.073035784,-0.022148032,-0.0039873123,0.07447966,0.06347246,-0.009731419,0.07667381,-0.0787248,0.07414395,0.0154725015,-0.0065609813,-0.03958205,0.012545824,-0.064658605,-0.031850714,-0.08145921,-0.010692783,-0.0784818,-0.073110886,0.031923555,-0.06585192,-0.063455835,-0.051233433,0.075686134,0.044292934,-0.047072347,0.05340617,0.0513357,0.06725722,-0.043360088,0.04580619,-0.05243227,-0.02420475,0.017555289,-0.029159743,-0.00999283,0.08058157,0.060078047,0.03265643,0.024853185,-0.06867802,0.06556193,0.056119986,0.038004123,0.03818287,0.052846424,-0.05503708,0.046421953,0.08287086,0.04976494,0.0733561
58,-0.040801167,0.07537107,-0.025443241,0.08361394,0.030997556,0.06470155,-0.033577085,-0.0014216278,-0.017157244,-0.039635077,0.01584779,0.02583877,-0.01778546,-0.072933085,-0.078941226,0.024858415,0.08381884,-0.07739497,0.0768404,-0.041485652,0.0048299273,0.008012572,-0.060885668,-0.036143854,0.08154208,0.013145489,0.08787093,0.057237606,0.040252253,0.01779197,0.046576265,-0.07152712,-0.032928985,-0.0023425766,0.07192458,-0.007492482,-0.032358866,-0.07487721,0.049568754,-0.012124576,0.085430406,0.038829017,-0.007458873,0.06547297,-0.018135518,-0.043379758,-0.0042695464,0.005413764,-0.02162535,-0.0025695227,0.0026848097,-0.021738771,-0.05053415,0.04343138,-0.04870551,0.049602352,-0.041018393,0.07235646,0.053904157,0.050501425,0.015465557,-0.028278258,0.079119526,0.05139965
59,-0.06994666,0.1508317,0.04756961,0.07909148,-0.14385977,0.11452385,0.057930063,0.08944609,-0.011327444,-0.101585545,-0.063264094,0.052715294,0.042118885,0.024989024,0.05641838,-0.06246048,0.10439016,0.18506551,-0.13087875,0.08052791,-0.06887913,0.10738839,-0.12976915,0.054169126,0.08099958,-0.03645596,-0.082097724,0.034399766,0.14095691,-0.0508616,0.07426401,-0.015635364,0.0050067557,0.13564089,-0.07950665,-0.087678276,-0.17598704,0.092952326,0.12063039,-0.04787841,-0.015195153,0.097170144,0.034212403,0.022155136,0.113781184,0.0009379834,0.09573345,0.066162616,0.078838624,-0.045651365,-0.088812284,-0.03792151,-0.05164427,0.003091405,0.09170554,0.18328439,0.10634647,-0.07713237,0.043519605,0.033043563,-0.007981099,-0.053513743,-0.03907667,0.122847274
60,-0.2783956,0.08027475,-0.009899686,-0.13808577,-0.21463236,0.18498047,0.17775132,0.10901042,-0.02488617,-0.16495533,-0.033203516,0.09593836,0.062182307,-0.09368576,-0.094949014,-0.009500265,0.27100825,0.0991556,-0.110623516,-0.014219351,-0.016168626,-0.05276957,-0.07361831,-0.06437843,0.24745932,-0.0038727645,0.13150871,-0.19623701,0.12891115,-0.04777738,0.07152255,0.016408993,-0.18032019,0.14819993,-0.04760533,-0.18217033,-0.1964173,0.18994851,0.16232559,-0.027175982,0.058213994,0.09105914,-0.1353499,-0.056093547,-0.009234494,0.1277438,-0.05847772,-0.09899018,-0.1131803,-0.07900355,-0.012060823,0.011791924,0.072615564,-0.043690033,0.120354205,0.10811199,0.0836251,-0.08197857,0.0433245,-0.073719226,0.07442262,-0.09045784,-0.05666675,0.08638175
61,0.0145156905,0.042780597,-0.077139534,-0.12631182,-0.095987335,0.048955675,-0.020742632,0.11381075,-0.08159155,-0.043778967,0.047396578,0.18151331,-0.05637784,-0.14963499,0.022996949,0.007624805,0.11434027,0.0028462575,-0.046323985,-0.056473594,0.08450241,-0.1168673,0.106037565,-0.026452051,0.04278826,-0.06285939,0.045578126,-0.027286833,0.1034969,0.010983721,-0.10913388,-0.10589787,0.053280953,0.014141867,-0.04603532,-0.0044460194,-0.005413058,-0.007967272,0.04921849,0.05571145,0.12951092,-0.10806894,0.090622164,0.077929206,-0.005752617,0.1083942,-0.0001708431,-0.08767237,-0.09924248,-0.16622603,-0.067341186,0.102497615,0.08432921,-0.10000445,-0.00080280774,0.021009108,-0.006972413,0.08737377,-0.06842962,-0.06270184,-0.038095266,0.07461964,-0.018340494,0.059799675
62,-0.10211019,0.04194591,-0.11406035,-0.053790156,0.012394799,0.014859056,0.087654255,0.23058642,0.020082666,-0.0025131186,0.13166437,0.14574692,0.037947528,-0.13380939,-0.078436255,-0.06346552,0.034567017,-0.067508236,-0.1463309,-0.04586104,0.09864634,-0.06687415,0.09716943,0.017241254,0.103186935,0.10311949,0.12635936,-0.1180599,0.19173974,0.024488354,-0.06251423,-0.14722617,-0.012503299,0.1981502,-0.12477857,-0.03998921,-0.103245445,0.011818434,0.1499342,0.10918591,0.18418442,-0.16399403,0.014897171,0.008599892,0.002258336,0.20744346,0.107588574,-0.0906604,-0.06690361,-0.12046142,0.01336728,-0.010471741,0.07156578,-0.025662737,-0.07474377,-0.012406304,0.15173341,0.037060734,0.008720651,0.018940609,0.06046943,0.052844565,-0.102260284,0.065005995
63,-0.10890932,0.14747699,-0.02840752,-0.04818852,-0.051474657,0.14048468,0.1932787,0.16540149,-0.0019324193,-0.007982142,0.07664942,-0.033224083,0.13924988,-0.038167514,0.010700513,-0.07300869,0.086664565,0.10647133,-0.119508125,-0.08169725,0.12525599,-0.11178929,0.089513995,-0.05183692,0.10114806,-0.047146786,0.11228534,-0.13271646,0.24142674,0.004922069,-0.032745633,-0.12910761,-0.07964876,0.16622232,-0.17461573,-0.1025324,-0.13727158,0.1625252,0.23745751,0.033461273,0.08729546,-0.18982142,-0.06071595,0.009321459,-0.02323852,0.14637862,0.09816862,0.046347816,-0.20580195,-0.06824952,-0.065583386,0.07701499,0.09094489,-0.07849774,-0.06513108,0.033265967,0.21122415,-0.045107268,0.08188063,-0.037952177,0.060504705,-0.03136327,-0.03563438,0.10788757
64,0.04232587,0.058568817,-0.15108709,0.0972106,-0.06284039,0.08905198,0.07684949,0.3076863,0.033966392,-0.02025858,0.18256673,-0.13954657,-0.047006816,-0.15295467,0.1010101,-0.07456478,0.18709889,-0.09649649,-0.12010826,-0.11932436,0.20213017,-0.14633165,0.105222456,-0.03493358,0.17731714,-0.08234915,0.13932532,-0.101428404,0.063307524,-0.10834852,0.0585842,-0.15910682,-0.13268557,0.26116446,-0.14846528,-0.2737747,-0.17987953,0.16057464,0.121027865,0.09631221,0.13320404,-0.31606856,-0.03288015,-0.107563116,-0.13293985,0.110874556,0.14152944,-0.12635098,-0.20015627,0.022995902,0.15483129,0.028997507,0.24436034,0.0076764356,-0.04472057,0.04648954,0.20868516,0.14820835,-0.17655025,-0.0988912,0.18347019,-0.01103452,-0.07450138,0.14147455
65,0.015734097,-0.01021489,-0.18305936,0.10286993,-0.10686695,-0.060557313,0.062326957,0.32547885,0.0068247537,-0.19466506,0.0642294,-0.14376563,-0.062098075,-0.23335385,0.23403096,-0.080568016,0.041160733,-0.03284043,-0.20980053,-0.12334597,0.3820568,-0.1719705,0.0989739,-0.006816598,-0.06159424,-0.11383361,0.07930987,-0.15195824,-0.08455428,-0.1197685,0.0031937496,-0.16461311,-0.105065726,0.23363638,-0.11553096,-0.20821787,0.024899853,0.14166027,0.046743788,0.0019047775,0.20067601,-0.22671038,-0.104078464,-0.028785577,-0.013968863,0.14109154,0.16759609,-0.0070164218,-0.08517538,0.003538933,0.12458099,-0.05735631,0.27356708,0.018478338,-0.21917532,0.12061208,0.39123285,0.18715927,-0.033305183,-0.053310648,-0.03156657,-0.14177357,0.086338304,0.17686383
66,0.06789119,-0.06725668,-0.15647723,0.115979776,-0.27739257,0.20122416,0.086120054,0.22027811,-0.094397604,-0.077166334,0.10795378,-0.0071311486,-0.16208236,-0.2518076,0.18766984,-0.069554836,0.21060795,-0.0625663,-0.2743722,-0.3192945,0.4114794,-0.19852616,0.0853779,-0.054437775,0.0152716385,-0.04605404,0.097357124,-0.09651342,0.018073423,-0.13013068,-0.11987533,-0.25277713,-0.067673065,0.3216285,-0.24007633,-0.13422006,-0.009977397,0.16038543,0.15329789,0.13729262,0.35474876,-0.15028773,-0.11148939,-0.16215149,0.03486258,0.1994468,0.12539554,-0.0062472112,-0.09666042,-0.03211347,0.040170737,0.038855445,0.33603072,-0.12279734,-0.16232549,0.048695553,0.2980136,0.2929608,-0.1565146,-0.16361246,0.1278233,-0.24296728,-0.002334942,0.35284692
67,0.15521523,-0.045808475,-0.05722877,-0.08840563,-0.30226558,0.17305101,0.10326458,0.29025027,0.041046347,-0.10675072,0.27781388,-0.030139934,-0.11302092,-0.19406153,0.11612723,-0.05925749,0.12498176,-0.06591177,-0.16674355,-0.20988414,0.4644635,-0.28967586,0.06943786,-0.09474975,-0.0467756,-0.043077685,0.25425613,-0.16022493,-0.029873509,0.0009742457,-0.053495813,-0.25267342,0.037788223,0.3094669,-0.34255806,-0.17403209,-0.118956655,0.27970353,0.17247483,0.22878717,0.29338384,-0.10161093,-0.14949436,-0.047339484,-0.0025145654,0.34320164,0.17579454,-0.019623892,-0.08563221,0.037018687,0.180984,-0.11479841,0.27768186,-0.01992742,-0.047492962,-0.19340333,0.24809535,0.22599499,-0.18517117,-0.28123766,0.16344091,-0.14375721,0.07856203,0.18397692
68,0.076911084,-0.108135566,-0.1417871,-0.17976688,-0.03496009,0.3230208,0.032043684,0.20473625,0.016070347,-0.035811417,0.05512247,-0.0026196295,-0.15958881,-0.1764771,0.041350674,0.03655052,0.053092826,-0.03352613,-0.13941199,-0.3315457,0.28114069,-0.032688793,0.16434115,-0.090421945,0.009222643,-0.036703516,0.045885112,0.0003637271,0.016649092,0.1591686,-0.071708746,-0.31255993,-0.039727896,0.10667448,-0.2238158,0.09158674,-0.18789797,0.037470046,0.04700167,0.20469978,0.19069354,0.023908997,0.07601198,0.17669484,-0.12705547,0.22003809,0.11495799,0.13529985,-0.020720327,-0.09092501,0.21106456,0.032292154,0.14016725,-0.07726376,-0.12550817,-0.06911454,0.2473118,0.1927347,0.0036272558,-0.1244565,-0.046839356,-0.16989024,0.039170425,0.19742513
69,-0.08749437,-0.101314336,-0.17901102,-0.12468691,-0.16345777,0.17228046,0.055051792,0.19496422,-0.037947867,-0.15057692,0.09221781,-0.09466324,-0.1188617,-0.02243393,0.057813883,0.077853896,-0.07976371,-0.007663544,-0.27788445,-0.26732743,0.39909133,-0.1661922,0.10361666,0.014216637,-0.10576338,-0.04072658,-0.046821248,-0.15212968,0.30010644,0.020755013,-0.16713566,-0.2610528,-0.06724284,-0.0074168616,-0.17963795,0.017346894,-0.15503632,-0.054332174,-0.052121308,0.0702273,0.14825967,-0.27884337,-0.039937332,0.19774914,-0.07774576,0.22697385,0.16083114,0.1855218,-0.21356955,-0.20118219,0.24103723,0.018655272,-0.12527339,0.040687356,-0.0024848892,0.08563279,0.1590895,0.31225657,-0.007763734,-0.19157311,-0.009862059,-0.25331727,-0.059155367,-0.07099509
70,-0.013556209,-0.12565233,-0.18761334,-0.06514269,-0.23176886,0.13532501,-0.059367333,0.13244557,-0.031133667,-0.11031636,0.28373313,-0.09580324,-0.12853907,-0.14559178,0.019754464,-0.015862964,0.011784428,-0.03339735,-0.21490422,-0.4110752,0.44723102,-0.03874803,0.19306459,-0.018599672,-0.099777386,-0.21937126,-0.021886388,-0.05224526,0.20268667,-0.097182594,-0.259045,-0.31313097,-0.065647006,0.11085316,-0.19780856,0.14798184,-0.33218405,-0.11366615,0.09065096,0.16298601,0.2965638,-0.22799489,-0.12422578,0.0537089,-0.07200776,0.3572497,0.102576435,0.07840405,-0.2870156,-0.2370632,0.15351395,-0.06316953,0.103411354,-0.023749277,-0.14345242,0.035218287,0.34606245,0.3770821,-0.11331396,-0.24134032,0.034479167,-0.26143458,-0.20044827,0.1305846
71,-0.06471708,-0.01509024,-0.00017989607,-0.08827511,-0.29749197,0.10369524,-0.05738719,0.31492016,0.07091858,-0.09553814,0.20068003,-0.0122972615,0.101321846,0.08938569,0.04861742,-0.012282746,-0.029105315,0.09922903,-0.21749169,-0.29525462,0.477804,-0.19886348,0.1116661,0.0787192,-0.12089517,0.008090578,-0.09507332,-0.15998237,0.26433808,-0.2129578,-0.19119394,-0.25663745,-0.06880815,0.10282142,-0.1287991,-0.011130422,-0.45661393,-0.0788164,-0.015377761,0.22758391,0.32813394,-0.25008675,-0.13906325,-0.06266054,-0.03330447,0.39300573,-0.012462021,0.13106042,-0.33788484,-0.093076974,0.058971394,0.0047043446,0.003910292,-0.084655106,0.02894165,-0.031049352,0.32439396,0.3186039,0.07909385,-0.25526857,0.08289767,-0.18868464,-0.18817332,0.0036523032
72,-0.08493451,0.09884052,0.13220797,-0.06309917,-0.34332252,0.056949656,0.12844703,0.24852338,0.017726557,-0.18144023,0.07467758,0.02026756,0.16007717,-0.0011505745,0.07134116,-0.024667067,-0.083528206,0.13567294,-0.23703967,-0.21759115,0.2401967,-0.16419522,0.012790839,0.26707023,-0.035371788,0.13821997,0.0681712,-0.22482935,0.3114909,-0.21863107,-0.36046815,-0.070315816,0.029253932,0.15934874,-0.08565011,0.02888322,-0.4538778,0.0034692339,-0.07154541,0.26867032,0.13146934,-0.10030465,-0.074073605,0.15010473,-0.22801377,0.26368305,-0.03011995,-0.0011089159,-0.20878416,-0.13171782,0.08862103,0.09204126,0.029958734,-0.048707988,0.041921563,-0.1338079,0.15734573,0.21309309,0.03201909,-0.16859536,0.24010698,-0.22694702,0.010188514,0.036935247
73,-0.13088019,0.23602998,0.06335278,-0.11242601,-0.15445247,-0.079255015,0.18732524,0.29971394,0.058254834,-0.15905118,0.20622642,-0.050356284,0.105205104,-0.11078042,-0.06642228,0.04239607,0.0046434645,0.13072447,-0.07440396,-0.23480098,0.102479614,-0.25325093,0.07836087,0.1499164,0.06979065,0.23895887,0.09961369,-0.24853206,0.17989376,-0.25008568,-0.2886357,0.02508405,0.007746624,0.12976165,0.09019555,0.007815786,-0.30081856,-0.014294398,-0.0016151587,0.10054917,0.02692573,-0.099276915,-0.048160993,0.035327118,-0.24764664,0.06417995,-0.017837824,-0.13007487,-0.2601401,-0.07085583,0.071930796,0.0060306704,-0.050170157,0.00059104105,0.08621948,-0.35224044,-0.037808035,0.13516252,-0.010119802,-0.15732175,0.34338343,-0.168259,-0.12049236,-0.09161201
74,0.013410627,0.11868662,0.042933043,0.034108795,-0.106099956,-0.14191931,0.11026518,0.3454182,-0.035829764,-0.0987103,0.03434678,0.122866675,-0.04168509,-0.15604924,-0.0088128,-0.029981649,0.05593147,0.06924987,-0.034044765,-0.27001175,0.22007488,-0.037705734,0.0082773315,0.10115409,0.192717,0.122210026,-0.04709659,-0.11490027,0.21300095,-0.1819276,-0.28402287,-0.0012361866,0.013653742,0.058906604,0.10643505,-0.08077267,-0.10988672,0.032666646,0.07217275,0.04069319,0.06217825,-0.1999137,-0.031789653,0.008391212,-0.20176686,-0.10405749,-0.08183377,-0.1855897,-0.20911373,-0.13227567,0.07550776,0.13096881,-0.038456023,0.08234529,-0.023814367,-0.3317153,0.041434124,-0.018124659,0.08054625,0.020344825,0.4049745,-0.22141556,0.0072312397,0.022272574
75,-0.20560496,0.20619638,0.103029996,-0.031675693,-0.12799816,-0.097156666,0.1686429,0.21713172,0.14582168,-0.06842883,0.13056032,0.27149102,0.10638226,-0.08788255,-0.06211724,-0.032481648,-0.025678804,-0.057872932,-0.119406946,-0.30263427,0.26183838,-0.081444144,0.049139492,0.09322698,0.11487838,0.18068436,-0.066166304,-0.26037294,0.28358075,-0.05749864,-0.1224815,-0.030589785,-0.17915718,0.15643771,-0.058457673,-0.17374626,-0.20634267,-0.012372577,-0.17490175,0.045805138,-0.0021733048,-0.21067007,-0.21311598,0.23747452,-0.25468624,-0.029230807,-0.16044441,-0.08735478,-0.28854945,0.05259562,0.09219745,-0.006943403,-0.0063805995,0.29229626,0.2137811,-0.20818365,0.009470051,-0.0080754245,0.011271124,-0.0029618489,0.15370522,-0.19557838,0.031893466,-0.177325
76,-0.05247012,-0.02733648,0.0035676826,0.05006994,-0.2116941,-0.041508198,0.14638129,0.1671186,0.21278052,-0.17865309,0.17678943,0.41718715,0.06847762,-0.098017804,-0.00825639,-0.0717634,0.025698852,-0.1553467,-0.168866,-0.17596957,0.12699443,-0.024342693,-0.013523734,0.074100904,0.14195678,0.014979774,0.012914755,-0.16385846,0.06979186,-0.1254214,0.10223223,-0.06162037,-0.1834888,0.113564394,-0.094460644,-0.20912372,-0.29106903,0.027883744,-0.035650183,-0.020231774,-0.071862824,-0.089980595,-0.14554721,0.035231464,-0.12695995,-0.11403141,-0.080101475,-0.09147016,-0.14289543,0.1460952,0.09232095,0.08144021,-0.02932659,0.05503061,-0.08141138,-0.04443252,0.03948901,0.12907654,0.0068795974,0.046841744,0.14858879,-0.05973457,-0.097371124,-0.010557318
77,-0.11721615,0.115565754,-0.054386336,-0.013589632,-0.22443569,0.07748524,0.06794868,0.16271123,0.21167424,-0.108351424,0.07394867,0.30910882,0.20891638,-0.26425722,0.030018782,-0.021290548,0.19560324,-0.14519379,-0.20016143,-0.2281549,0.049581323,-0.12605457,0.16415915,-0.098231845,0.070399955,-0.08501644,0.07424991,-0.102431774,-0.09140114,-0.07255635,0.3403306,-0.029808566,-0.21685429,0.11041429,-0.09907224,-0.13184932,-0.18509871,0.099696495,-0.010116986,-0.09530476,0.11304614,-0.15821506,-0.13952012,0.00740159,-0.0031011903,-0.0072765057,0.06241805,-0.12639917,-0.105910406,0.036709506,0.07209043,0.024125816,0.10212035,0.09778831,-0.14939553,-0.030616105,0.091294035,0.13648956,-0.056597233,-0.01270763,0.11550834,-0.14811416,-0.09792616,0.079489626
78,-0.23907502,0.14095761,-0.08315182,-0.05474598,-0.15830234,0.11325627,0.10507559,0.15956134,0.2881078,-0.05783824,0.115879774,0.29108992,0.04882601,-0.14810365,0.02409054,0.012666494,0.063915,-0.16745038,-0.14450696,-0.1539971,-0.004363972,-0.04350678,0.11858846,-0.09910449,0.13786556,0.08166681,0.028824328,-0.10572726,0.11660078,-0.048166,0.18828319,-0.040721167,-0.1554548,0.13988487,0.009497158,-0.22677508,-0.29788408,0.19308473,0.080850765,-0.09569504,0.10975536,-0.016435845,-0.17156099,-0.007198486,-0.029980099,0.0020611617,0.08241127,-0.090868086,-0.13624871,0.17554066,0.148919,0.010993547,0.11021503,0.10670813,-0.012472349,-0.12976566,0.08499905,0.13276258,-0.073712565,-0.022606805,0.1669877,-0.04795873,0.055036288,0.07516803
79,-0.15441301,0.22270957,-0.03197409,-0.037674032,-0.26950905,0.19512452,0.1365046,0.1891537,0.09212873,-0.04738252,0.07220909,0.26036775,0.24842776,-0.0651398,0.026278399,-0.023072597,0.099481225,0.06240881,-0.13598071,-0.17752896,0.092199646,-0.21183722,0.042847496,-0.08868812,0.20329204,0.057796255,0.039838023,-0.28957745,-0.08692627,-0.13609242,0.10904299,-0.067750014,-0.20202975,0.22051781,-0.086143024,-0.2127408,-0.2701304,0.19567528,-0.07917036,0.011391601,-0.03283896,-0.08554205,-0.06465257,-0.0688979,-0.023903714,-0.028917026,0.07371338,-0.16927288,-0.2501637,-0.056167692,0.0049259667,0.059413802,0.099245,0.045204755,-0.08398842,-0.16625783,0.16050634,0.06600704,-0.06521625,0.13343275,0.015057379,0.003970811,-0.012345252,0.17730154
80,-0.052312896,0.03946239,-0.02690749,0.1185588,-0.15489288,0.10150826,-0.07900696,0.056213986,-0.049453836,0.005607118,0.005153565,0.026008269,0.121647716,-0.095983535,0.047128107,-0.023788475,0.008180009,-0.010869439,-0.16992831,-0.16322708,0.24626635,-0.016070552,-0.03844144,0.039438464,0.06190854,-0.040407266,0.06994977,0.044639137,0.026249183,-0.01951393,-0.012194373,-0.0047292337,-0.018298427,0.20986456,-0.19032091,-0.037508983,0.04309621,-0.012663144,-0.18582414,0.14304136,0.048228856,-0.16433452,0.08790913,-0.08310266,-0.009608753,0.1324361,0.09643508,-0.15347736,-0.064517096,0.015417123,-0.0068233935,0.12347123,0.017043589,-0.0108500365,-0.23809126,0.13367021,0.12130911,0.11815597,-0.035685826,-0.00923482,0.052289452,0.053487,0.11905225,0.08711989
81,0.07553525,-0.105793744,-0.10352167,0.009321482,-0.013686933,-0.058321275,-0.0061029946,0.10064208,-0.044300947,-0.06701096,-0.024571085,-0.111331485,-0.020924063,-0.0738581,0.067137726,-0.03397652,-0.15573873,0.08884599,-0.09206882,-0.07876426,0.1464524,0.11780009,-0.02285991,0.030267412,-0.022678234,-0.10675897,-0.14757325,0.008409555,-0.05954118,-0.005461886,0.03482715,-0.057988033,-0.05039937,0.008024967,-0.03889812,0.05234006,0.14040023,-0.0016687865,-0.059878793,0.07772338,0.0033491612,-0.086214475,0.19004625,0.03575901,-0.05173115,0.010639026,0.07159049,0.028532369,0.13497268,0.009846205,0.06238903,0.025672935,-0.053788982,-0.0925466,-0.12464169,0.13465501,0.07981938,0.041430444,0.005299385,0.21565779,-0.058443766,0.043235194,0.04313016,0.14624625
82,0.025749326,0.025205083,-0.0076029226,0.078662075,-0.0593271,-0.028715372,0.08320273,-0.08140105,-0.028797254,-0.01676409,0.04144416,-0.08051667,0.041900598,0.024619542,-0.058348008,0.011516899,-0.04598287,-0.07927005,0.039129533,-0.022093624,-0.009499364,0.029866211,0.014900982,0.048353903,0.07473815,0.0025164112,-0.045277286,0.061355926,-0.046544306,-0.023614258,-0.009487957,0.070412494,-0.051933065,0.015462108,-0.031663984,0.013924673,-0.0021663979,-0.028607696,-0.024873197,0.036797345,-0.059600785,-0.029847562,-0.08204218,0.00557629,0.059704088,-0.040805712,-0.048352186,-0.049454056,0.07862415,0.052482985,-0.061625496,0.011931531,0.08281588,-0.018514104,0.07044182,0.028578132,-0.08088276,0.004397489,0.023527056,0.0016794279,-0.08260534,-0.068582,-0.0007913634,-0.018640451
83,0.036053695,0.066170536,-0.0307688,-0.04595596,0.05502992,-0.021726463,-0.053200945,0.032718964,0.06800454,0.015671924,0.066900365,-0.05233711,0.019815281,-0.0600371,0.06068904,-0.034864746,0.00381843,-0.004407279,0.017852582,0.007647909,0.05249562,0.03528437,-0.070837274,-0.076468,0.07044511,0.070061825,-0.065850556,-0.054553144,0.02376619,0.060768954,0.026220478,0.08387647,0.034157254,0.077622674,-0.078005895,-0.03846153,0.036919817,-0.061265875,0.07017671,0.011272125,-0.049556773,0.06102883,0.0783299,-0.030518614,-0.041846577,-0.022042304,0.024141595,0.07509919,0.043731324,-0.06886453,0.040052876,-0.07885207,0.028950073,0.048368983,0.035159193,-0.007929057,-0.05190236,0.04822717,0.050197832,-0.071730256,-0.037576832,-0.02366672,-0.05046989,-0.0716512
84,0.0015232638,-0.008419856,-0.051230267,0.032481574,-0.043475647,0.049896844,-0.045570727,0.049016453,0.024276666,0.012361966,0.027308531,0.049728148,0.01871626,0.012947202,0.044791125,0.080521874,-0.060691487,0.036026582,0.0732198,4.221499e-05,0.05161456,0.06311471,-0.007695116,0.004266955,-0.055629037,0.028021194,-0.032288108,-0.06843275,0.060503073,0.036974266,0.016419366,-0.07297957,-0.047875702,0.025564708,-0.011163093,0.00742767,0.010348886,0.059379123,-0.06621792,0.03658256,0.047980316,-0.048579104,0.0463972,0.07616954,-0.072550654,-0.05551236,-0.07661169,-0.032561976,0.04862777,0.06927771,0.05936239,-0.02002012,-0.025757812,0.016452394,-0.0078072622,0.019919269,-0.03716966,-0.07831045,-0.07385446,-0.004781984,-0.058143005,0.005079776,0.0816528,-0.06518562
85,0.028534219,-0.05135751,-0.070928164,-0.04227302,0.0038797557,0.0680499,0.076366015,-0.05335649,0.013954617,0.06669759,0.029784307,0.01697252,-0.05549874,-0.06949593,0.03550309,-0.08403896,-0.07550059,-0.045027666,-0.03118945,0.039261036,0.016389444,0.016925707,-0.0013138652,0.014352083,-0.08317668,0.07184938,-0.07104825,-0.030184865,-0.006675914,-0.04451988,-0.05874162,0.044414826,-0.06653988,0.04708942,0.012273021,-0.07203128,-0.058725417,-0.060596667,-0.030859906,0.063453,-0.047542352,-0.08268281,-0.034358542,-0.078360245,0.074406065,0.07690146,0.008045174,-0.078583755,0.0064521804,0.07827873,-0.023545649,-0.04806935,0.01754111,0.018067367,-0.014953844,0.024895556,0.07292422,-0.048058823,-0.04757807,0.06244523,0.025866225,-0.062681966,0.01910033,0.07140117
86,0.06924833,0.071288064,0.007864116,0.056923307,-0.07148465,-0.05280173,0.07043483,0.10347956,-0.05008281,0.023786068,0.10156193,-0.077895455,0.041288458,0.004932263,0.06978131,-0.0612825,0.041797675,-0.023978092,0.0025209358,-0.058748003,0.010687507,0.038271222,0.011951063,-0.05276161,-0.032703966,-0.084378175,-0.011863877,0.03792719,-0.0567681,-0.062104527,-0.0060709477,0.041597184,-0.055860892,0.04374389,0.06831788,-0.0023790686,0.030062871,0.035970483,0.06758975,-0.015316731,-0.061283898,-0.04730759,0.050689932,-0.00729388,0.06412332,-0.046771765,-0.07167756,-0.076168396,-0.0720963,-0.049978245,-0.031674832,0.09103927,-0.0018923496,-0.025429908,-0.08419105,0.008211949,-0.030397465,0.06735637,0.07828588,0.012615611,-0.037766613,-0.08261763,-0.0019002497,0.04693896
87,-0.15233372,0.19460537,-0.0082290545,-0.042034008,-0.05638907,0.073086075,0.08123056,0.09922116,-0.1700732,-0.043862764,-0.20191188,0.00478427,-0.07028085,-0.10693333,0.06695649,0.056021668,0.13231649,0.1139866,-0.070847094,0.021931592,0.06410158,0.063013636,-0.1915643,0.029249003,0.11422397,0.06346452,0.019867022,-0.14217426,0.224108,-0.19077104,-0.058976352,-0.10025719,-0.0011746667,0.24908917,-0.015965965,-0.2452694,-0.20955007,0.14960773,0.13276047,-0.03680915,0.08635519,0.09876384,-0.11950284,0.06834326,0.014112407,-0.03238015,-0.0011886372,-0.013208901,0.071906775,-0.06501386,-0.100028284,0.09469824,-0.104534246,-0.08279663,0.008323039,0.18811308,0.1826691,-0.04188182,0.06096372,-0.044034354,0.09234621,-0.025822466,0.04230472,0.14487869
88,-0.08878873,0.12183134,-0.105442934,0.0055799056,-0.092791796,0.07531732,0.062048867,0.12904967,0.0014815946,-0.045878757,-0.05022534,0.08870529,0.004604222,0.023875479,0.011838889,0.061486594,0.030406203,-0.02676241,0.049054265,0.07252182,-0.018802214,0.033074122,-0.06281587,-0.036544945,0.038967256,-0.06078,-0.03581628,0.0005918,0.062444955,-0.028107438,-0.019799782,-0.07932933,-0.10486622,0.15902443,-0.014158384,-0.1797442,-0.20610979,0.11852077,0.14619432,0.028081588,0.09148841,-0.014932144,0.063442424,-0.05547809,-0.0043239137,0.13263527,-0.04256499,-0.055992655,-0.11208153,0.039973956,0.06107848,0.04256483,0.09413672,0.008575811,-0.044069536,0.012496506,0.10662609,-0.1212506,-0.09718472,-0.04434308,0.115105346,-0.039810196,-0.048110515,0.15460226
89,-0.030263042,-0.059107825,0.07674346,0.039164446,-0.024800275,0.050151892,0.12889823,0.0482462,-0.09720427,0.0036810103,0.14179713,-0.0581852,-0.03276046,-0.0020128302,0.15642588,-0.0065220967,-0.031894207,-0.16316888,0.009200289,-0.10688119,0.1733393,-0.008214157,0.039238404,-0.07702836,0.06537366,0.077015385,0.10859089,-0.1133747,0.023305077,-0.025134712,0.13495499,-0.23709738,-0.12664731,0.12596881,-0.068413876,-0.2064835,-0.20694678,0.08062695,0.22949687,0.001314386,0.0014095269,0.067656435,-0.12833886,0.0018005985,-0.020051502,0.1262731,0.044984944,-0.024260273,-0.029894356,0.04361931,0.016362386,-0.03444493,0.09415976,0.07417072,-0.050448764,-0.099546656,0.041586217,0.044589154,-0.11306659,-0.03295055,0.065180056,0.07008604,0.003738168,-0.06068571
90,0.0027013866,0.06590337,-0.0878296,0.030325841,-0.20129445,-0.000855361,0.21419711,0.16547725,0.009640156,-0.08063116,0.21320927,-0.025990749,-0.06505176,-0.21970911,0.16293536,-0.07083064,0.10800556,-0.12493216,-0.1413678,-0.23381801,0.11333822,-0.15114366,0.17770232,0.0060660336,0.20338888,-0.03819754,0.2191636,-0.23385467,0.013866116,0.03027538,0.06582577,-0.24919993,-0.08690321,0.22574289,-0.27877572,-0.27852672,-0.32232293,0.06289534,0.20495582,0.08211889,0.060757913,-0.16133611,-0.15197518,-0.08323859,-0.0041959938,0.3306544,0.071995065,-0.15669088,-0.19207895,-0.017313568,0.20125449,-0.033240043,0.2685554,0.14791165,-0.09673531,0.03244189,0.27345482,0.11292714,-0.1652737,-0.13932566,0.045133833,-0.007800248,-0.083623074,0.056816753
91,0.01238628,-0.0649877,-0.08180662,0.12675661,-0.2758235,-0.011211869,0.14722483,0.04036014,0.014034761,-0.06636761,0.068223715,-0.0392641,-0.07230715,-0.065367825,0.16343294,-0.029197365,-0.037976857,-0.15449792,-0.12503174,-0.25306174,0.09269272,-0.091958396,0.10359666,-0.047554042,0.10365353,-0.10065465,0.19387662,-0.12834613,0.014085243,-0.19525012,-0.016812228,-0.24263209,0.0011460424,0.04464511,-0.3216867,-0.02663838,-0.13877665,0.09674925,0.118693516,0.082028724,0.019829005,-0.030971061,-0.21414441,0.104010634,0.032273266,0.17776951,0.0006234716,-0.012008762,-0.019608965,-0.09197656,0.11127901,-0.03443508,0.1872836,0.04403623,-0.097726874,-0.025852812,0.085426554,0.25806698,-0.032208428,-0.08398842,0.1169403,-0.039565466,-0.024273591,0.041080873
92,0.09924211,-0.043395124,0.041498363,0.31796074,-0.44448823,0.24970712,0.106586844,0.24739937,-0.12517273,-0.19060014,-0.06433527,-0.031313013,-0.17258221,-0.10997471,0.2541613,0.007171929,0.012195794,0.18373431,-0.1041631,-0.37968972,0.097209364,-0.21956238,-0.046646208,0.09218783,0.05182293,0.13119459,0.14343837,-0.1736909,-0.0067637796,-0.17870747,0.017233606,-0.2601702,-0.21199371,0.11274963,-0.3919952,-0.12761867,-0.07968948,0.16577648,0.20564565,0.19410725,-0.045344993,0.09896533,-0.27190158,-0.22775291,-0.029452972,-0.0750043,0.03401429,0.026959023,-0.0703889,-0.046336204,-0.020946713,-0.029279102,0.29283336,0.095464244,-0.074393146,-0.0023713363,0.11555455,0.027408361,0.07375706,0.08880736,-0.06504509,-0.1564676,0.16976269,-0.028939595
93,0.19734268,0.053202923,0.06468697,0.35160604,-0.3240906,0.072416045,0.20227447,0.36770537,-0.15289184,-0.16517861,0.064909175,-0.10650815,-0.2667854,-0.29890674,0.2929862,0.002626154,0.15430267,0.18534976,-0.18078889,-0.27170464,0.08653504,-0.10695653,-0.010140494,0.112899035,0.25111902,0.08575665,0.10298488,-0.22066127,0.0026767561,-0.098171376,-0.1704222,-0.27535215,-0.07016795,0.240546,-0.2261502,-0.10308068,-0.18219489,0.14292946,0.11472087,0.13659485,0.13991225,-0.14250462,-0.18380457,0.017155895,-0.1618002,-0.047212195,0.05766686,-0.103727326,-0.08096634,-0.3041458,0.02873163,0.08014212,0.23442234,0.08781491,-0.13747363,0.12721485,0.2201009,0.1270692,-0.038961858,0.031136628,-0.1300032,-0.1269304,0.07830513,0.26757362
94,0.27043474,0.078468725,0.08642714,0.18723343,-0.39765784,0.09170381,0.12596793,0.22832276,-0.08715937,-0.21739805,0.04495915,-0.13813555,-0.16272907,-0.17294908,0.24267714,-0.083061785,0.10946329,-0.029882876,-0.15065227,-0.3449983,0.0111744,-0.12869018,0.061045267,0.1339946,0.10234269,0.22206269,0.18355715,-0.08213888,-0.036457386,0.014188712,-0.14300051,-0.41522652,-0.07253517,0.1263182,-0.21089573,-0.039834846,-0.041203238,0.107359365,0.32837963,-0.08785192,-0.015762262,0.024185998,-0.18616953,-0.15268399,-0.12591176,-0.059670236,0.0399105,-0.04758177,0.0043983357,-0.09937256,-0.04810823,0.1287287,0.20746522,0.06428335,-0.20425464,-0.06720646,0.21418123,0.15058374,0.072931,0.114710964,-0.053736556,-0.12279455,0.1417548,0.18141182
95,0.32223532,-0.06012376,-0.013477409,0.022610784,-0.3409331,0.071363226,0.18129118,0.29085308,-0.041528337,0.03770076,0.038323402,-0.09426731,-0.09409009,-0.14638118,0.23983057,-0.059063252,0.030980812,-0.10528568,-0.09711834,-0.18398139,0.18253607,-0.08861037,0.09487416,0.052845083,0.054160956,0.05484214,0.20402971,-0.159093,-0.059772577,-0.009808232,-0.1777666,-0.40880644,-0.08383685,0.10351209,-0.063058935,-0.14730668,-0.21136591,0.19544546,0.18534012,0.103717946,-0.07814821,0.07622083,-0.20408322,-0.21112622,-0.20405754,0.016199745,0.1665469,0.023142047,-0.041408487,-0.04733688,-0.009653188,0.059210837,0.28556412,-0.19679186,-0.113340415,-0.064891875,0.11464261,0.0806191,-0.07120564,-0.0060996995,-0.020916844,-0.07450866,0.0013156413,0.055511583
96,0.22002387,0.02510796,0.08537315,0.14582968,-0.32414567,0.22469607,0.07128896,0.2074676,-0.18494199,0.031512775,0.015842034,-0.074241064,-0.03481774,-0.09532668,0.32722768,0.0463336,-0.1752024,0.059651963,-0.23056415,-0.22733451,0.25265068,-0.037864797,0.025298398,0.20856231,-0.02953866,0.010022968,0.056471538,-0.21706033,0.08454124,0.12261376,-0.13134119,-0.35015243,-0.10243388,0.064284585,-0.26290816,-0.097246476,-0.271282,0.11771343,0.12406057,0.02580325,-0.11453805,-0.037862364,-0.07557605,-0.0077830483,-0.22148325,0.0078043398,0.13255276,0.15320626,-0.034193877,-0.09629063,-0.055441298,0.08041079,0.10087171,-0.10244791,-0.076116756,-0.0059659127,0.13827337,0.06408717,0.0581127,0.1198514,-0.051630113,-0.17257822,0.13798201,0.068083435
97,-0.0014078071,0.14172083,0.060121458,-0.023521788,-0.40118212,0.33577275,0.02444498,0.34491926,-0.24969834,-0.101796314,-0.054980252,-0.19935702,-0.13549685,-0.14461574,0.19411857,0.011411779,-0.05393215,0.053579796,-0.27582395,-0.37638336,0.12829056,-0.026936825,0.093120225,0.2877552,-0.10047106,0.051565576,0.084883176,-0.07809516,0.27042922,-0.203487,-0.26590934,-0.35541332,-0.18084951,0.1450756,-0.25837064,-0.012835404,-0.36489984,0.09878744,0.19587032,-0.008429613,0.04283786,-0.073454775,-0.01962425,0.007355788,-0.041176446,0.09370396,0.20524761,0.10452916,-0.2595081,-0.23230475,-0.096508555,0.15238608,0.09176272,-0.22718577,-0.041494768,0.16629064,0.19763917,0.048872646,0.03525029,0.124333926,0.034573745,-0.3274747,0.051882934,0.07035037
98,0.020727087,0.050245248,0.012986987,-0.16418713,-0.2229126,0.23333305,0.1742897,0.06731816,-0.0777434,-0.30281675,0.1896908,-0.18371049,-0.15897332,-0.17414221,0.2705671,-0.018086283,-0.07000669,0.014113249,-0.15061212,-0.34576416,-0.014845909,-0.15152511,0.15758726,-0.064096704,-0.07514442,0.044542134,0.09481456,-0.0888034,0.23215151,-0.20870206,-0.27843845,-0.41553456,-0.18553999,0.011950063,-0.2528072,0.21703082,-0.24028592,0.13915147,0.025986016,-0.006942097,-0.024896057,0.055095825,-0.19030556,-0.07504056,-0.087165534,-0.07863819,0.08527269,0.014812468,-0.1380919,-0.16078074,0.0064347703,0.042420436,0.12504914,-0.11769389,-0.024727564,0.12323754,0.114068836,0.09171622,-0.024605418,0.05572122,0.14564185,-0.2573369,0.052689023,0.046995822
99,0.16927445,0.09919919,0.1868505,-0.108206406,-0.100064896,0.15277588,0.06552477,0.1036553,-0.19951238,-0.34557337,-0.0129092345,-0.308644,0.0003674446,-0.16120766,0.13217473,0.009637289,-0.022148607,-0.051057957,-0.0025705872,-0.24034745,0.016324319,-0.040672593,0.17269796,0.14317931,-0.04666959,0.11008657,0.022972858,-0.028945021,0.2790532,-0.23726623,-0.1544943,-0.20679526,-0.10241412,0.06763118,-0.044856627,0.28474918,-0.25500116,0.106908426,0.0038370704,0.033928584,-0.009639773,-0.036425367,-0.15507804,-0.0056859553,-0.04826741,-0.20476374,0.08637718,-0.13411766,-0.17528142,-0.08483425,-0.066239916,-0.012281434,0.10790334,-0.13353442,0.06779403,0.08488839,0.008571849,0.022725236,0.020586954,-0.018351575,0.10886921,-0.28747627,0.034375574,-0.117176875
100,0.09303724,0.16399431,0.10994203,-0.10030984,-0.08870241,0.22358018,0.10228363,0.18936378,-0.11186832,-0.3350505,0.0006895525,-0.27749026,0.06539353,-0.1642091,0.12468727,0.00076581165,-0.15017998,0.006436999,-0.13467309,-0.21683703,0.17782597,-0.064126156,0.102608666,0.20194666,-0.07847713,0.028602665,0.07554965,-0.045298148,0.17580129,-0.26239118,-0.322633,-0.17560267,-0.07817759,-0.0429775,-0.05281926,0.2896904,-0.3516639,0.13130446,-0.097442366,-0.014076421,0.13942347,0.03585511,-0.027218558,-0.086041644,0.012345559,-0.14484763,-0.044725154,-0.030757483,-0.008909788,0.105134234,-0.08349353,0.020556325,0.039741404,-0.099382564,0.026024971,0.008630075,0.11761169,0.12251298,0.033709623,-0.08292935,0.02688067,-0.35582557,0.06709983,-0.013798155
101,0.053454872,0.15593152,0.12191794,-0.08098984,-0.025830511,0.07299461,0.13488805,0.0747128,-0.046774246,-0.18360601,0.007887057,-0.20957473,0.123395145,-0.047780484,-0.0017319866,0.06482537,-0.045413014,-0.08191927,-0.22257993,-0.18742143,0.03151223,-0.091140874,0.03970412,0.12122227,-0.11758406,0.08382223,0.058074597,0.08287711,-0.029060137,-0.15813807,-0.18815392,-0.039934225,-0.08985501,-0.047561508,-0.022256061,0.16523181,-0.24513403,0.119621545,-0.06331684,-0.00096172397,0.04108482,0.07901981,-0.041565243,-0.029943177,0.0162651,-0.20022964,0.018763252,0.02349439,-0.037186768,0.16110316,0.025534485,-0.012896452,0.017401235,0.03671433,-0.07537823,0.009471839,-0.011076757,0.006494818,-0.049640954,-0.1468669,0.05239339,-0.14627181,-0.07304935,-0.0779473
102,0.007533782,0.22301005,0.041060276,0.017431887,0.010230946,0.07292612,0.06996158,0.24631041,-0.012554231,-0.1132151,0.037797533,-0.09760116,0.080536656,0.04214171,0.03092857,0.079578705,0.00808476,-0.14827707,-0.16055937,-0.15493977,-0.12592395,-0.008068948,0.0898891,0.14901865,0.05553777,0.089287505,0.13048954,-0.1609393,-0.005653856,-0.06696965,-0.018116834,0.12685852,0.029821763,0.12609002,-0.0069144876,0.11165423,-0.32583967,0.12906983,0.050758272,0.10182696,-0.06839581,-0.012570569,0.03320572,-0.07478336,-0.082510635,-0.23699427,-0.0014223087,-0.26870033,-0.068712436,0.16010088,0.03786866,0.07361904,0.0056094634,0.098299466,0.10128375,-0.13293596,-0.046501715,-0.030817105,-0.08846211,-0.06668894,0.2454261,-0.26275867,-0.13603482,0.042355962
103,-0.08861647,0.25170162,0.009238399,0.038215805,-0.061587088,0.026105318,0.18282832,0.12907115,-0.04588946,-0.09374493,0.097630896,-0.003927414,0.17999665,-0.13335183,0.022308644,0.057310216,-0.020023493,-0.14990965,-0.02427102,-0.113778174,0.08549935,0.021296108,0.038252562,0.0003841155,0.20064124,0.11553992,0.07687824,-0.13121147,0.06875421,-0.13239226,-0.017279772,0.08085021,-0.0908163,0.04068309,0.055318713,0.048612073,-0.20772335,0.08994551,-0.18132985,0.026906881,-0.05242134,-0.016389823,-0.028627196,-0.0742854,-0.13603792,-0.054604214,-0.04658668,-0.4461732,-0.2552049,-0.005177289,0.13387646,-0.016113805,0.019517645,0.026381427,0.004733998,-0.11898932,-0.04984975,0.089829154,-0.13164955,-0.09845996,0.25564933,-0.18060552,-0.1531769,-0.11958957
104,0.06790441,0.19133137,0.18306337,0.17671533,-0.093539,-0.12178127,0.08094822,-0.07792944,0.082277365,-0.13804714,0.08344421,0.12258503,0.17947991,-0.06871427,0.072764315,0.045422487,0.067363314,-0.12785433,0.017998036,-0.1581681,0.10436894,0.010618574,0.09830143,-0.0036562367,0.073819324,0.03676838,-9.585733e-05,-0.128313,-0.022322334,0.030163763,0.14429836,-0.078565024,-0.08757236,0.08840831,-0.052596673,0.046633568,-0.1413815,0.18542324,-0.13231127,0.03854132,-0.08569087,0.062102474,-0.0666801,-0.05548154,-0.21621142,0.08714009,-0.082320206,-0.33467916,-0.096064284,-0.006383576,0.11371918,0.007918899,0.024912994,0.14453018,-0.09631648,-0.021320172,-0.027130473,-0.074130856,0.06280242,0.066203356,0.21237227,-0.07887607,0.019892212,-0.07948593
105,0.1032987,0.090881504,-0.021651352,0.06402004,0.23103566,-0.19437493,0.23897606,-0.002057621,-0.040828757,-0.2450806,-0.018450033,0.10106477,-0.1221387,-0.15013678,-0.045327753,-0.041461002,0.16922538,-0.10453711,0.1546224,-0.15981294,-0.069660515,-0.036680643,0.21658103,-0.028468123,0.15300696,-0.01154278,0.10191635,-0.013276057,0.07044706,-0.037746876,0.029154593,-0.00062727026,-0.13384414,-0.0071329875,0.11201583,-0.05836298,-0.042784803,0.10725651,-0.12339286,-0.14398326,-0.038766384,-0.0923826,0.06330605,-0.08159201,-0.028913042,0.16352634,-0.20715171,-0.3093789,-0.07168185,0.04244794,0.06729622,-0.04776873,0.06957149,0.14448692,0.026718393,-0.05889452,0.032771114,-0.06746266,-0.15747298,0.048417002,0.15134639,-0.2026298,0.045355752,0.08458497
106,0.1518436,0.0113626225,-0.19865066,-0.015888128,0.21672702,-0.2531843,0.25126037,0.109108016,0.042761464,-0.19281161,0.08123819,0.032024555,-0.052665852,-0.12247494,-0.08801281,-0.05297047,0.15408309,-0.11825321,0.21819541,-0.13690293,-0.13792542,0.041413106,0.18436259,-0.047183976,0.22064474,0.016732702,-0.02973101,0.0605399,-0.017452795,0.115527205,0.052260634,-0.00805005,-0.01236446,-0.05967378,0.03471,-0.027086774,-0.18641223,0.036519427,-0.14745297,-0.119583175,-0.03447602,-0.08182376,0.13157807,0.08184373,-0.08804542,0.100562066,-0.122479364,-0.2707789,0.06264196,0.104902185,0.14926426,-0.008240528,0.17399646,0.18596944,0.059450965,0.026169075,-0.024096975,0.083723575,-0.12080519,-0.044965137,0.03257983,-0.15574819,-0.089795366,-0.005709673
107,0.03677799,0.05652579,-0.10945595,-0.0023523415,0.24914002,-0.051149383,0.15278493,0.06167687,0.118241094,-0.32718283,-0.10112053,0.13063195,0.12616743,0.050818622,-0.022317529,-0.014781607,0.15775011,-0.09788021,0.039250027,-0.115018606,-0.081091836,-0.079263225,0.09532354,-0.05885511,0.119560294,0.02460672,0.022795737,0.0012971368,-0.07518958,0.21503372,0.20487873,0.009026971,-0.021279907,0.056071337,-0.14430216,-0.1980959,-0.14363216,0.08194511,-0.2642852,-0.15730323,-0.025991296,0.050707847,0.09476204,0.05396662,-0.024757752,0.16633132,-0.12626338,-0.10353643,-0.02171448,0.12493817,0.13790137,-0.09267843,0.13864292,0.056710355,-0.050162308,-0.012244911,0.06556752,-0.063920744,-0.056862354,-0.017440274,-0.070662044,-0.24293923,-0.0061337454,0.014361069
108,-0.042911872,0.07318813,-0.21307945,0.09734241,-0.1880995,0.06783253,0.06367063,0.08886921,0.062605746,-0.21776985,-0.055844635,0.047577783,0.095621936,-0.21675593,0.010454063,-0.064095356,0.09982975,0.06141129,0.038879767,-0.07222756,0.17671928,-0.10336429,-0.03118728,-0.06722218,0.21461174,-0.0163242,-0.026402967,-0.10529362,-0.03236914,-0.22954793,0.021173142,0.041846197,-0.13050519,0.07056265,-0.11208526,-0.10937079,-0.03084278,0.118754946,-0.2496646,-0.08155592,-0.07855986,0.0029828632,-0.013627914,0.07927657,0.14739949,0.06642815,0.09630343,-0.04958809,-0.00067386654,0.0311168,0.16777211,-0.03732735,0.024773587,-0.111683354,-0.0006652323,-0.030505678,-0.03308941,0.032140672,-0.036215868,0.026989907,0.06034427,-0.13660005,0.07160976,-0.06552873
109,0.15875222,0.10225466,0.019793097,-0.06794642,0.11339142,-0.08198438,-0.1095078,-0.08266038,-0.03629929,0.07305808,-0.041499227,-0.010923318,0.07295275,-0.07376682,0.12202643,-0.021747962,-0.14099237,0.101546116,0.14604478,-0.015416591,-0.033242177,0.09670525,-0.06512514,0.071811125,0.017505242,-0.06307803,-0.00827056,-0.029758161,0.022128196,-0.1654055,0.03002965,-0.0076958947,-0.16162603,-0.15616769,-0.090628356,0.010825298,-0.08044163,0.07494176,-0.07797497,-0.017218994,-0.03192718,0.033639077,0.13226177,-0.052287914,0.16425903,0.051376544,-0.02351265,-0.06352983,0.08942768,0.02609469,0.17257595,0.16901907,0.013398442,0.014284902,-0.018605735,-0.046712052,-0.098557055,-0.16518912,0.1354373,0.04294696,-0.02839448,-0.16003197,0.027919127,-0.09431705
110,0.1798868,-0.008102676,-0.06683215,-0.0883681,0.01021382,-0.1470859,0.003282103,-0.017960617,-0.0001592611,-0.08410313,0.11379745,0.1547396,0.13522243,-0.08845191,0.16839269,0.051314108,-0.030665943,0.1042382,0.102100186,-0.025118822,-0.036737192,0.037354156,0.048603565,0.002350254,0.08560128,-0.09493689,-0.01804956,-0.12424121,0.009815551,-0.19921598,-0.018487545,-0.14906289,-0.19374552,-0.03885557,0.07881703,0.0917178,-0.032110423,0.036409937,-0.08361518,-0.08322958,-0.08061197,0.14081907,-0.09783032,0.0025568455,-0.09021551,0.11989987,-0.090995826,-0.025894256,0.09061575,0.047293194,0.023823408,-0.000403153,-0.01574326,0.049798075,0.11055309,0.020382935,-0.15151554,-0.10650178,0.10759935,0.1835773,-0.06043589,-0.17869641,-0.0794735,-0.05838557
111,0.02621717,-0.03661266,-0.046203136,-0.030939225,0.07659324,0.034783065,-0.07786615,-0.0049026087,0.046139337,0.006092578,0.019413948,0.020847224,-0.010940358,0.07574629,-0.049012847,0.05212275,0.06731457,0.07825955,0.07920181,0.026090138,-0.022360735,0.06900989,0.060319357,0.04352855,-0.041292604,-0.0770621,0.050478555,-0.018875614,0.011063717,0.017562069,0.0739943,0.08167385,0.05261246,-0.04314488,-0.060385108,0.03682927,-0.0473623,-0.06586394,-0.057232417,0.0704925,-0.056159068,0.003860481,-0.036943365,0.054267935,-0.030079156,-0.015553102,0.010556616,-0.08245324,-0.029010355,0.06425228,0.061398484,-0.007867448,0.026564777,0.083037265,-0.002023667,-0.025696784,0.0034956485,-0.010228761,0.03807319,-0.017442241,-0.052478336,0.034450598,-0.0669415,0.06615157
112,-0.082836956,0.007563837,-0.008705378,0.028112821,0.040320687,-0.059025917,-0.03632229,-0.013835371,-0.033655424,0.0367292,-0.054470718,0.065136485,0.026049592,0.0076425374,-0.015962295,-0.0131185725,0.020413198,-0.06278911,0.01726231,0.066978194,0.011194356,-0.053320095,0.01739034,0.07511107,-0.006420836,-0.042836457,0.04676182,-0.056421485,0.07901441,0.060854174,-0.057669412,0.04478649,0.06859582,-0.077327505,0.032611832,0.057693742,0.012244642,-0.07447022,0.008963183,-0.064634174,-0.0071319565,0.013796002,0.008328967,-0.051225152,0.00044248998,0.047720365,0.00062256306,-0.02209583,-0.013505749,0.0622726,0.013780877,-0.066715315,-0.018237673,0.07913322,-0.038155213,0.04189419,-0.037303526,0.0013612807,0.07899105,-0.052873634,0.007649176,0.006677918,0.06004984,-0.0716213
113,0.044712633,0.014028269,0.100113824,-0.04848805,0.021082452,0.08524161,0.045914587,0.032996386,0.08259524,-0.0005428791,-0.019626386,-0.047021247,0.04036222,0.10786451,0.052434213,0.07340645,-0.05414645,-0.029255198,-0.004672988,-0.01682479,-0.06857532,0.021191081,0.078819424,0.008103758,-0.068681754,0.06554685,0.09395722,-0.09734588,-0.088870525,-0.08574669,0.014322129,0.0053951596,0.045470703,0.06460306,0.005010627,0.053698972,-0.08278789,0.11244202,0.07521638,-0.043539602,0.035363488,0.0127895465,-0.024566876,0.050834425,-0.09163357,-0.06983867,-0.051931027,-0.04356214,0.008859675,0.057908587,-0.116277464,-0.0636186,0.07647984,-0.07343424,0.035661824,-0.03948301,-0.024633233,0.058171965,0.04128119,0.049551904,-0.017914124,0.0024577559,-0.035817824,-0.089491114
114,0.14875826,-0.07242628,0.11857458,-0.03750705,-0.11985541,0.15300016,-0.049886044,-0.07606893,-0.04007087,0.024680808,0.04439506,-0.10706816,0.014743253,0.14413331,-0.037998065,0.059877016,0.0033224875,0.07498994,-0.1319592,-0.034328964,0.050487638,-0.018692318,-0.1917523,0.038719676,-0.07609668,-0.16619098,0.2083497,-0.058076575,-0.22876737,0.077914126,0.03918553,-0.023519902,-0.028399324,0.038249902,0.018783396,0.1082926,-0.029746667,0.13746445,-0.0295579,0.12852933,-0.0014367513,0.1118963,0.085208975,-0.018120095,0.07433661,-0.104734726,0.017086064,-0.024546545,0.1738488,0.12102637,0.061547507,-0.17611977,0.099454165,-0.036990035,-0.22548576,-0.015166039,0.1307712,0.10808878,-0.0077790967,0.0096893385,0.09275812,0.053143118,0.1292181,0.009737319
115,-0.0070771286,0.036453012,0.046577398,0.010131759,-0.018300666,0.20723973,0.19317353,-0.18268047,-0.03029419,-0.03496234,-0.20590998,0.008522655,0.009675704,0.08503423,-0.023894817,0.054322876,-0.10982872,-0.16323602,-0.123255484,0.052520957,-0.1862423,-0.14042819,-0.23195727,0.042943526,-0.102045655,0.028144766,0.20189114,-0.23627289,0.08607678,-0.031246858,0.23154986,0.12590337,-0.15528549,0.1127435,-0.16282757,-0.09687378,-0.15929274,0.18894085,0.25299188,0.13938998,-0.16858913,0.18247211,-0.15799761,0.004472278,-0.03881427,-0.16021211,-0.08171083,0.15629347,0.06977563,0.18744755,-0.097368196,-0.12783542,0.1368789,0.13310516,-0.0707439,-0.03685523,-0.06316217,0.051522177,0.06402321,0.11903696,0.25162774,0.055823468,0.11159437,-0.09039389
116,0.010781773,-0.17779121,-0.017490309,-0.16063817,-0.1850911,0.19668987,0.19521731,-0.01847758,-0.038602453,-0.09417005,-0.099813245,-0.032044392,0.043729123,-0.0107118,-0.083396755,-0.028676206,0.004272707,0.027830893,-0.19138403,-0.10415266,-0.053580265,-0.19204473,-0.043658175,-0.040587112,-0.1489798,0.06459794,0.22160244,-0.29346365,0.018087061,-0.06836696,0.19297372,0.068232134,-0.1198492,0.124856055,-0.20852657,-0.2352103,-0.21409722,0.20086229,0.25850165,0.13299106,-0.17049457,0.114036314,-0.07288013,-0.13920951,-0.0668779,0.103428856,-0.05744577,0.08974822,0.10600317,0.13928486,0.016130665,-0.17835818,0.27356562,0.065366514,-0.15098445,0.012929254,0.06869272,0.18003629,-0.035630897,0.10380005,0.23274598,0.09335708,0.025402186,-0.076436855
117,0.18973626,-0.27458736,0.04586564,0.057367526,-0.1162539,0.06876658,0.010487981,0.084273994,-0.11697723,0.048701238,0.06169124,-0.15417902,0.15131636,0.1671327,0.07359338,0.039590985,-0.040377196,0.021241195,-0.26689988,-0.28620988,0.15996616,-0.27109307,0.009220852,-0.06025563,-0.24394472,0.007068622,0.12971805,-0.04061064,-0.14643125,-0.16735344,-0.10565656,0.0069679064,-0.02062712,0.11633094,-0.105621636,-0.1196388,-0.08353251,0.10425882,0.052262448,0.08767848,-0.082826205,0.10555706,-0.005516686,-0.047422502,-0.0110594295,0.2038119,0.17659555,0.28931543,0.117142834,0.12293247,0.002441959,-0.22754987,0.2128182,-0.10616225,-0.18326768,-0.066341594,0.24878702,0.38341627,-0.07613106,-0.17872363,-0.07610457,0.14219858,0.059347842,-0.024731684
118,0.113225825,-0.13811982,0.0031961715,0.18373941,-0.21305756,0.010156892,-0.033841874,0.12202291,-0.15336594,-0.20649332,0.16732758,-0.14574885,-0.11274597,-0.036910176,0.278322,-0.050942253,0.04875661,-0.052882355,-0.08076144,-0.31814218,0.024705106,-0.049530018,-0.03015318,0.086528294,-0.17618716,-0.03175464,0.041063678,0.031379417,-0.07466075,-0.06948119,-0.027611045,-0.045875955,-0.06339022,0.15412517,-0.30886275,-0.08820756,0.04112231,0.15255678,-0.00026749802,-0.012447663,0.078739636,-0.012583084,-0.010858188,-0.13621415,0.0895509,0.29862645,0.038909003,-0.035724092,0.0030466444,0.07914317,0.032026574,-0.052841432,0.11870772,-0.0002203961,-0.29652214,-0.14036518,0.2202307,0.13627619,0.05379663,-0.10996208,-0.083937645,-0.03955787,0.11244104,0.023411924
119,0.1682165,-0.059987683,-0.031954464,0.25751492,-0.13107015,0.07700892,0.031499553,0.019001372,-0.22550607,-0.18221958,0.10163972,-0.2247113,-0.14449163,-0.11761189,0.1643163,-0.08238242,-0.0435766,-0.15224159,-0.023687955,-0.43708408,0.008337977,-0.015665084,0.056589406,-0.030304087,-0.12229978,-0.028709834,0.081521206,-0.04307197,0.053804666,-0.23480777,-0.07124208,-0.18754387,-0.05118475,0.20432237,-0.16950972,0.028385876,-0.09099164,0.052471254,0.110002525,-0.025660494,-0.025275063,0.06134244,-0.11521987,0.030485442,0.08345038,-0.030194521,0.09710993,-0.023725366,0.06527808,-0.010619092,0.13465579,0.0683313,0.06794062,0.05888498,-0.21377446,-0.23340967,0.064966135,0.032527376,0.04993658,0.06417555,-0.14251982,0.14635229,0.023204168,0.047798492
120,0.07538745,-0.23090518,0.042777494,0.18982695,-0.3677488,0.24549933,0.16822186,0.22296613,0.042452186,-0.08291296,0.07170587,-0.3281632,-0.2015499,0.08794703,0.054965463,-0.07264155,-0.06882053,-0.14567596,-0.26491076,-0.42297265,0.06919885,-0.17397209,0.15737578,0.12629294,-0.018889975,0.08579325,0.1551025,-0.14359538,0.091519184,-0.009658499,-0.15058854,-0.28850138,0.0029743307,0.13844715,-0.26400578,-0.113899976,0.0043261764,0.06143824,0.07841661,0.083903134,0.12703277,0.008456932,-0.085640125,0.113598794,-0.01416092,0.0957854,0.11242794,0.10522805,-0.006268394,-0.11856599,0.10155549,-0.010512531,0.120957665,-0.013464153,-0.30264288,-0.2025361,0.28008184,0.15581816,0.05994445,0.05452184,-0.14055327,-0.011624695,0.03412713,-0.04447583
121,0.027086489,-0.07676469,0.12326081,0.19134772,-0.23895037,0.18321677,0.12082597,0.24232934,-0.006237289,-0.21505414,0.08725924,-0.26552743,-0.24277373,0.0795648,0.08542661,0.036670767,-0.10034301,-0.11912948,-0.187373,-0.33334607,-0.14037903,0.018387916,0.18275918,0.13191059,-0.038768582,0.010319248,-0.03079529,-0.012033452,0.060571562,0.09841975,-0.06273588,-0.30241528,-0.08081915,0.18953496,-0.24885572,-0.034523573,0.045024555,0.041786592,0.06620141,-0.12695844,-0.049035486,0.06938689,-0.06826085,0.030953646,-0.043343112,0.08447018,0.057836223,0.13295424,0.035381153,-0.05036037,0.07989366,0.1095516,0.084906206,-0.03756307,-0.28952068,-0.19464278,0.18725646,0.031595726,0.16118734,-0.0075300694,-0.14540233,-0.052351523,0.04589711,0.049775973
122,0.16416922,-0.109247215,0.086950324,0.13876489,-0.26004732,0.10251371,0.08613756,0.2131627,-0.0060743764,-0.2948784,0.09231722,-0.098440565,-0.3024372,0.1196152,0.22386065,-0.0155277,-0.07737056,-0.10080724,-0.13150635,-0.25663242,0.0016032076,-0.012738923,0.07651403,0.17505625,-0.120738044,-0.10732897,0.06229333,0.00024779138,0.169247,-0.023657955,-0.02043512,-0.28323358,-0.10568695,0.06778591,-0.10416869,0.0966215,-0.069178656,0.14971676,0.2167946,-0.11246434,-0.033710323,-0.008427768,-0.084134616,-0.036587212,-0.067592986,0.084392786,0.13957396,0.06886088,0.03638073,-0.034368526,0.011743764,0.1256121,0.12288159,-0.01174261,-0.0864263,-0.18342942,0.08371757,0.021330336,0.07228174,0.11470853,-0.09549654,0.0067687426,0.17316543,-0.011193046
123,0.11855688,-0.13114451,0.06456953,0.11676716,-0.02619873,0.20264295,0.049066536,0.06588202,-0.047396462,0.019309644,0.06782397,-0.18550427,-0.024534285,0.022210892,0.15451305,0.016467975,-0.10902796,0.10759228,-0.07940933,-0.1638728,-0.015130457,0.13149312,-0.0030607414,0.18821241,-0.12727427,-0.15582621,0.018143436,0.010736878,0.10251048,-0.1525051,-0.11647061,-0.04467635,0.020795181,0.053266365,-0.14802651,-0.069312535,0.013440977,0.08902659,0.1577282,-0.15576227,-0.027412752,0.051830687,-0.02288603,0.009471349,-0.08903768,-0.010728886,0.050189886,0.1543272,0.1193416,0.0076291007,-0.03769381,0.044423044,0.14453508,-0.07492343,-0.12252025,-0.07767342,0.027623849,0.017901298,0.110828646,0.21441592,0.0426103,-0.010041907,0.18276986,0.0032804701
124,0.25965893,-0.07709118,0.036218923,0.16837771,0.048258062,0.09591421,-0.045315005,0.14903648,-0.12770246,-0.03255251,-0.05042168,-0.21728888,0.05639383,0.17698368,0.25781196,0.028045053,-0.069765836,-0.05566566,-0.014185257,-0.038543332,-0.07575663,0.1389292,0.065976575,0.20487686,-0.1485636,0.03447517,0.10657185,0.007810063,0.1288745,0.0053354087,-0.12116834,-0.119427964,0.038787678,0.008981684,-0.15975231,-0.052863523,-0.08929686,0.10850588,0.22325417,-0.0956342,-0.11091183,0.03418308,-0.013127125,0.00038183737,-0.009860902,-0.0035240953,0.043331012,0.13344605,0.10763803,-0.0008422261,-0.03538448,0.11183276,0.1897103,-0.0051061916,-0.09849018,0.062311575,0.028241897,0.009475885,0.09337751,0.05062198,-0.091135204,0.023438899,0.10151387,0.056756105
125,0.21108301,-0.16035151,0.096603684,0.051878225,-0.023770612,0.1214407,0.13039465,0.00035226744,-0.08083102,0.04106773,0.017958848,-0.18748239,0.0030536104,0.12084707,0.13829982,0.03847815,-0.06904045,-0.036924068,-0.0956078,-0.12362066,0.002762668,0.13657597,0.14891057,0.014191688,-0.19062144,-0.087833315,-0.011431091,0.113169916,0.25970006,-0.11445392,-0.05126542,-0.28608727,-0.10284537,-0.040287796,-0.1614826,0.072864324,-0.08750525,0.06567972,0.072939925,-0.07542429,0.027153486,0.015734632,-0.0496785,0.25270268,0.011969057,-0.027654462,-0.019117791,0.109372094,0.041114684,0.013317924,0.046012968,0.033210866,0.0031631242,-0.16136247,-0.023446122,0.14111033,0.02055233,0.16320002,0.041643202,-0.023410765,-0.12887245,-0.044341456,0.030816808,-0.029366255
126,0.19683474,-0.024779605,0.12059657,0.03704671,0.07534856,0.16362025,0.12719373,0.16339949,-0.16138572,-0.1643281,-0.045334686,-0.27958053,-0.026843315,-0.07754229,0.11007331,-0.08461596,0.038053095,-0.04646863,-0.018339481,-0.11485663,0.004884988,0.01704362,0.10424852,0.16112085,-0.10308813,-0.07201908,0.07357435,0.0075834715,0.14709608,-0.06866218,-0.10060226,-0.19951959,-0.044466738,0.043532077,-0.07930854,0.019196188,-0.029637018,-0.057041835,-0.03020597,-0.03786234,-0.001868577,0.032092784,-0.01222605,0.1474041,0.037420332,-0.29021356,-0.038176484,0.1136986,-0.038717136,-0.055743907,-0.084449604,0.11170146,0.10946817,-0.025633954,0.0553937,0.105347775,0.1067262,0.12872206,0.01992819,-0.12322116,-0.004936661,-0.17210959,0.10965464,-0.0059859417
127,0.1560269,0.052999575,0.14885175,0.08896735,0.003880985,0.1706257,0.0064144293,0.21009113,-0.15721415,-0.17907348,-0.060839146,-0.30073598,0.04199979,-0.07202796,0.027296908,-0.10857754,-0.069880106,-0.07959077,-0.10573221,-0.09401544,0.037525564,-0.008558289,0.06266866,0.20648423,0.047938295,-0.08395609,-0.08431406,0.0016023174,0.19495848,-0.19419089,-0.044812262,-0.04889019,-0.03653043,0.010693904,0.002741902,0.20237236,-0.15260349,-0.060257256,0.09345189,-0.114453085,0.011189112,0.045077402,0.030449938,0.041851837,0.096680686,-0.31413186,0.058965594,-0.022789123,-0.10298333,-0.033343367,-0.04705664,0.058115456,0.019444147,-0.036976043,0.12856527,0.017084662,0.04723069,-0.05090598,0.1254928,0.043086488,-0.009867223,-0.17926356,0.09674754,-0.027416948
128,0.1417218,0.09670499,0.12838994,0.1334953,0.017406639,0.11812079,0.13140225,0.22553705,-0.08072639,-0.06562405,-0.058654673,-0.22602378,0.0877348,-0.013692314,0.059086066,-0.010186911,-0.024058105,-0.07303448,-0.13552305,-0.18117507,-0.022749776,-0.0649223,0.048053846,0.17255123,-0.050709784,-0.076723695,-0.07037751,0.021210408,0.097118005,-0.117652975,-0.060726844,-0.12421678,-0.11638768,0.097282715,-0.030519972,0.2574812,-0.17181,0.020778745,0.048344508,-0.057269037,0.06353865,-0.006676015,0.04736697,-0.07660691,0.027695283,-0.21923828,-0.046403345,-0.08176984,-0.103165574,0.062418543,-0.039981034,0.02751881,0.099898316,-0.07408346,0.04843945,0.0737597,0.08479547,0.09960916,0.018848151,-0.12247011,0.0836406,0.0038862699,0.06366358,-0.025171448
